digraph Tree {
node [shape=box] ;
0 [label="score <= 21.5\ngini = 0.444\nsamples = 51\nvalue = [17, 34]\nclass = Lose"] ;
1 [label="score <= 15.0\ngini = 0.401\nsamples = 18\nvalue = [13, 5]\nclass = Win"] ;
0 -> 1 [labeldistance=2.5, labelangle=45, headlabel="True"] ;
2 [label="gini = 0.0\nsamples = 7\nvalue = [7, 0]\nclass = Win"] ;
1 -> 2 ;
3 [label="gini = 0.496\nsamples = 11\nvalue = [6, 5]\nclass = Win"] ;
1 -> 3 ;
4 [label="max temp <= 63.5\ngini = 0.213\nsamples = 33\nvalue = [4, 29]\nclass = Lose"] ;
0 -> 4 [labeldistance=2.5, labelangle=-45, headlabel="False"] ;
5 [label="gini = 0.444\nsamples = 3\nvalue = [2, 1]\nclass = Win"] ;
4 -> 5 ;
6 [label="gini = 0.124\nsamples = 30\nvalue = [2, 28]\nclass = Lose"] ;
4 -> 6 ;
}