digraph Tree {
node [shape=box] ;
0 [label="max temp <= 80.735\ngini = 0.375\nsamples = 4\nvalue = [1, 3]\nclass = Lose"] ;
1 [label="gini = 0.0\nsamples = 1\nvalue = [0, 1]\nclass = Lose"] ;
0 -> 1 [labeldistance=2.5, labelangle=45, headlabel="True"] ;
2 [label="min temp <= 59.99\ngini = 0.444\nsamples = 3\nvalue = [1, 2]\nclass = Lose"] ;
0 -> 2 [labeldistance=2.5, labelangle=-45, headlabel="False"] ;
3 [label="gini = 0.5\nsamples = 2\nvalue = [1, 1]\nclass = Win"] ;
2 -> 3 ;
4 [label="gini = 0.0\nsamples = 1\nvalue = [0, 1]\nclass = Lose"] ;
2 -> 4 ;
}