digraph Tree {
node [shape=box] ;
0 [label="max temp <= 52.07\ngini = 0.497\nsamples = 56\nvalue = [26, 30]\nclass = Lose"] ;
1 [label="gini = 0.0\nsamples = 2\nvalue = [0, 2]\nclass = Lose"] ;
0 -> 1 [labeldistance=2.5, labelangle=45, headlabel="True"] ;
2 [label="max temp <= 74.48\ngini = 0.499\nsamples = 54\nvalue = [26, 28]\nclass = Lose"] ;
0 -> 2 [labeldistance=2.5, labelangle=-45, headlabel="False"] ;
3 [label="gini = 0.278\nsamples = 6\nvalue = [5, 1]\nclass = Win"] ;
2 -> 3 ;
4 [label="gini = 0.492\nsamples = 48\nvalue = [21, 27]\nclass = Lose"] ;
2 -> 4 ;
}