digraph Tree {
node [shape=box] ;
0 [label="max temp <= 52.07\ngini = 0.497\nsamples = 56\nvalue = [26, 30]\nclass = Lose"] ;
1 [label="gini = 0.0\nsamples = 2\nvalue = [0, 2]\nclass = Lose"] ;
0 -> 1 [labeldistance=2.5, labelangle=45, headlabel="True"] ;
2 [label="max temp <= 74.48\ngini = 0.499\nsamples = 54\nvalue = [26, 28]\nclass = Lose"] ;
0 -> 2 [labeldistance=2.5, labelangle=-45, headlabel="False"] ;
3 [label="max temp <= 61.52\ngini = 0.278\nsamples = 6\nvalue = [5, 1]\nclass = Win"] ;
2 -> 3 ;
4 [label="max temp <= 56.03\ngini = 0.5\nsamples = 2\nvalue = [1, 1]\nclass = Win"] ;
3 -> 4 ;
5 [label="gini = 0.0\nsamples = 1\nvalue = [1, 0]\nclass = Win"] ;
4 -> 5 ;
6 [label="gini = 0.0\nsamples = 1\nvalue = [0, 1]\nclass = Lose"] ;
4 -> 6 ;
7 [label="gini = 0.0\nsamples = 4\nvalue = [4, 0]\nclass = Win"] ;
3 -> 7 ;
8 [label="avg wind speed <= 36.375\ngini = 0.492\nsamples = 48\nvalue = [21, 27]\nclass = Lose"] ;
2 -> 8 ;
9 [label="min temp <= 59.0\ngini = 0.496\nsamples = 46\nvalue = [21, 25]\nclass = Lose"] ;
8 -> 9 ;
10 [label="home <= 0.5\ngini = 0.482\nsamples = 37\nvalue = [15, 22]\nclass = Lose"] ;
9 -> 10 ;
11 [label="gini = 0.0\nsamples = 1\nvalue = [1, 0]\nclass = Win"] ;
10 -> 11 ;
12 [label="min temp <= 56.961\ngini = 0.475\nsamples = 36\nvalue = [14, 22]\nclass = Lose"] ;
10 -> 12 ;
13 [label="gini = 0.484\nsamples = 34\nvalue = [14, 20]\nclass = Lose"] ;
12 -> 13 ;
14 [label="gini = 0.0\nsamples = 2\nvalue = [0, 2]\nclass = Lose"] ;
12 -> 14 ;
15 [label="min temp <= 62.51\ngini = 0.444\nsamples = 9\nvalue = [6, 3]\nclass = Win"] ;
9 -> 15 ;
16 [label="gini = 0.0\nsamples = 4\nvalue = [4, 0]\nclass = Win"] ;
15 -> 16 ;
17 [label="avg wind speed <= 19.5\ngini = 0.48\nsamples = 5\nvalue = [2, 3]\nclass = Lose"] ;
15 -> 17 ;
18 [label="gini = 0.0\nsamples = 1\nvalue = [1, 0]\nclass = Win"] ;
17 -> 18 ;
19 [label="gini = 0.375\nsamples = 4\nvalue = [1, 3]\nclass = Lose"] ;
17 -> 19 ;
20 [label="gini = 0.0\nsamples = 2\nvalue = [0, 2]\nclass = Lose"] ;
8 -> 20 ;
}