digraph Tree {
node [shape=box] ;
0 [label="avg wind speed <= 25.5\ngini = 0.477\nsamples = 314\nvalue = [123, 191]\nclass = Lose"] ;
1 [label="avg wind speed <= 1.0\ngini = 0.268\nsamples = 44\nvalue = [7, 37]\nclass = Lose"] ;
0 -> 1 [labeldistance=2.5, labelangle=45, headlabel="True"] ;
2 [label="gini = 0.0\nsamples = 1\nvalue = [1, 0]\nclass = Win"] ;
1 -> 2 ;
3 [label="min temp <= 47.03\ngini = 0.24\nsamples = 43\nvalue = [6, 37]\nclass = Lose"] ;
1 -> 3 ;
4 [label="gini = 0.0\nsamples = 13\nvalue = [0, 13]\nclass = Lose"] ;
3 -> 4 ;
5 [label="max temp <= 68.99\ngini = 0.32\nsamples = 30\nvalue = [6, 24]\nclass = Lose"] ;
3 -> 5 ;
6 [label="min temp <= 49.01\ngini = 0.375\nsamples = 4\nvalue = [3, 1]\nclass = Win"] ;
5 -> 6 ;
7 [label="avg wind speed <= 7.0\ngini = 0.5\nsamples = 2\nvalue = [1, 1]\nclass = Win"] ;
6 -> 7 ;
8 [label="gini = 0.0\nsamples = 1\nvalue = [1, 0]\nclass = Win"] ;
7 -> 8 ;
9 [label="gini = 0.0\nsamples = 1\nvalue = [0, 1]\nclass = Lose"] ;
7 -> 9 ;
10 [label="gini = 0.0\nsamples = 2\nvalue = [2, 0]\nclass = Win"] ;
6 -> 10 ;
11 [label="max temp <= 83.93\ngini = 0.204\nsamples = 26\nvalue = [3, 23]\nclass = Lose"] ;
5 -> 11 ;
12 [label="gini = 0.0\nsamples = 10\nvalue = [0, 10]\nclass = Lose"] ;
11 -> 12 ;
13 [label="avg wind speed <= 12.0\ngini = 0.305\nsamples = 16\nvalue = [3, 13]\nclass = Lose"] ;
11 -> 13 ;
14 [label="gini = 0.0\nsamples = 1\nvalue = [1, 0]\nclass = Win"] ;
13 -> 14 ;
15 [label="gini = 0.231\nsamples = 15\nvalue = [2, 13]\nclass = Lose"] ;
13 -> 15 ;
16 [label="attendance <= 57347.5\ngini = 0.49\nsamples = 270\nvalue = [116, 154]\nclass = Lose"] ;
0 -> 16 [labeldistance=2.5, labelangle=-45, headlabel="False"] ;
17 [label="max temp <= 68.54\ngini = 0.498\nsamples = 203\nvalue = [95, 108]\nclass = Lose"] ;
16 -> 17 ;
18 [label="min temp <= 47.48\ngini = 0.478\nsamples = 53\nvalue = [32, 21]\nclass = Win"] ;
17 -> 18 ;
19 [label="max temp <= 48.47\ngini = 0.499\nsamples = 44\nvalue = [23, 21]\nclass = Win"] ;
18 -> 19 ;
20 [label="avg wind speed <= 68.5\ngini = 0.346\nsamples = 9\nvalue = [2, 7]\nclass = Lose"] ;
19 -> 20 ;
21 [label="gini = 0.219\nsamples = 8\nvalue = [1, 7]\nclass = Lose"] ;
20 -> 21 ;
22 [label="gini = 0.0\nsamples = 1\nvalue = [1, 0]\nclass = Win"] ;
20 -> 22 ;
23 [label="attendance <= 31492.5\ngini = 0.48\nsamples = 35\nvalue = [21, 14]\nclass = Win"] ;
19 -> 23 ;
24 [label="gini = 0.499\nsamples = 29\nvalue = [15, 14]\nclass = Win"] ;
23 -> 24 ;
25 [label="gini = 0.0\nsamples = 6\nvalue = [6, 0]\nclass = Win"] ;
23 -> 25 ;
26 [label="gini = 0.0\nsamples = 9\nvalue = [9, 0]\nclass = Win"] ;
18 -> 26 ;
27 [label="avg wind speed <= 30.516\ngini = 0.487\nsamples = 150\nvalue = [63, 87]\nclass = Lose"] ;
17 -> 27 ;
28 [label="min temp <= 50.096\ngini = 0.496\nsamples = 134\nvalue = [61, 73]\nclass = Lose"] ;
27 -> 28 ;
29 [label="max temp <= 70.07\ngini = 0.375\nsamples = 12\nvalue = [9, 3]\nclass = Win"] ;
28 -> 29 ;
30 [label="gini = 0.0\nsamples = 1\nvalue = [0, 1]\nclass = Lose"] ;
29 -> 30 ;
31 [label="gini = 0.298\nsamples = 11\nvalue = [9, 2]\nclass = Win"] ;
29 -> 31 ;
32 [label="attendance <= 54859.0\ngini = 0.489\nsamples = 122\nvalue = [52, 70]\nclass = Lose"] ;
28 -> 32 ;
33 [label="gini = 0.482\nsamples = 116\nvalue = [47, 69]\nclass = Lose"] ;
32 -> 33 ;
34 [label="gini = 0.278\nsamples = 6\nvalue = [5, 1]\nclass = Win"] ;
32 -> 34 ;
35 [label="min temp <= 36.95\ngini = 0.219\nsamples = 16\nvalue = [2, 14]\nclass = Lose"] ;
27 -> 35 ;
36 [label="gini = 0.0\nsamples = 1\nvalue = [1, 0]\nclass = Win"] ;
35 -> 36 ;
37 [label="avg wind speed <= 38.5\ngini = 0.124\nsamples = 15\nvalue = [1, 14]\nclass = Lose"] ;
35 -> 37 ;
38 [label="gini = 0.245\nsamples = 7\nvalue = [1, 6]\nclass = Lose"] ;
37 -> 38 ;
39 [label="gini = 0.0\nsamples = 8\nvalue = [0, 8]\nclass = Lose"] ;
37 -> 39 ;
40 [label="min temp <= 63.5\ngini = 0.43\nsamples = 67\nvalue = [21, 46]\nclass = Lose"] ;
16 -> 40 ;
41 [label="avg wind speed <= 55.0\ngini = 0.406\nsamples = 60\nvalue = [17, 43]\nclass = Lose"] ;
40 -> 41 ;
42 [label="attendance <= 68615.5\ngini = 0.395\nsamples = 59\nvalue = [16, 43]\nclass = Lose"] ;
41 -> 42 ;
43 [label="min temp <= 46.586\ngini = 0.231\nsamples = 15\nvalue = [2, 13]\nclass = Lose"] ;
42 -> 43 ;
44 [label="gini = 0.5\nsamples = 4\nvalue = [2, 2]\nclass = Win"] ;
43 -> 44 ;
45 [label="gini = 0.0\nsamples = 11\nvalue = [0, 11]\nclass = Lose"] ;
43 -> 45 ;
46 [label="attendance <= 79295.5\ngini = 0.434\nsamples = 44\nvalue = [14, 30]\nclass = Lose"] ;
42 -> 46 ;
47 [label="gini = 0.499\nsamples = 21\nvalue = [10, 11]\nclass = Lose"] ;
46 -> 47 ;
48 [label="gini = 0.287\nsamples = 23\nvalue = [4, 19]\nclass = Lose"] ;
46 -> 48 ;
49 [label="gini = 0.0\nsamples = 1\nvalue = [1, 0]\nclass = Win"] ;
41 -> 49 ;
50 [label="min temp <= 65.93\ngini = 0.49\nsamples = 7\nvalue = [4, 3]\nclass = Win"] ;
40 -> 50 ;
51 [label="gini = 0.0\nsamples = 3\nvalue = [3, 0]\nclass = Win"] ;
50 -> 51 ;
52 [label="max temp <= 76.01\ngini = 0.375\nsamples = 4\nvalue = [1, 3]\nclass = Lose"] ;
50 -> 52 ;
53 [label="gini = 0.0\nsamples = 1\nvalue = [1, 0]\nclass = Win"] ;
52 -> 53 ;
54 [label="gini = 0.0\nsamples = 3\nvalue = [0, 3]\nclass = Lose"] ;
52 -> 54 ;
}