digraph Tree {
node [shape=box] ;
0 [label="score <= 22.5\ngini = 0.497\nsamples = 56\nvalue = [26, 30]\nclass = Lose"] ;
1 [label="score <= 7.5\ngini = 0.083\nsamples = 23\nvalue = [22, 1]\nclass = Win"] ;
0 -> 1 [labeldistance=2.5, labelangle=45, headlabel="True"] ;
2 [label="score <= 5.0\ngini = 0.32\nsamples = 5\nvalue = [4, 1]\nclass = Win"] ;
1 -> 2 ;
3 [label="gini = 0.0\nsamples = 4\nvalue = [4, 0]\nclass = Win"] ;
2 -> 3 ;
4 [label="gini = 0.0\nsamples = 1\nvalue = [0, 1]\nclass = Lose"] ;
2 -> 4 ;
5 [label="gini = 0.0\nsamples = 18\nvalue = [18, 0]\nclass = Win"] ;
1 -> 5 ;
6 [label="score <= 25.5\ngini = 0.213\nsamples = 33\nvalue = [4, 29]\nclass = Lose"] ;
0 -> 6 [labeldistance=2.5, labelangle=-45, headlabel="False"] ;
7 [label="attendance <= 12662.0\ngini = 0.5\nsamples = 4\nvalue = [2, 2]\nclass = Win"] ;
6 -> 7 ;
8 [label="gini = 0.0\nsamples = 1\nvalue = [1, 0]\nclass = Win"] ;
7 -> 8 ;
9 [label="gini = 0.444\nsamples = 3\nvalue = [1, 2]\nclass = Lose"] ;
7 -> 9 ;
10 [label="attendance <= 56320.5\ngini = 0.128\nsamples = 29\nvalue = [2, 27]\nclass = Lose"] ;
6 -> 10 ;
11 [label="gini = 0.077\nsamples = 25\nvalue = [1, 24]\nclass = Lose"] ;
10 -> 11 ;
12 [label="gini = 0.375\nsamples = 4\nvalue = [1, 3]\nclass = Lose"] ;
10 -> 12 ;
}