digraph Tree {
node [shape=box] ;
0 [label="avg wind speed <= 35.688\ngini = 0.49\nsamples = 112\nvalue = [48, 64]\nclass = Lose"] ;
1 [label="max temp <= 63.5\ngini = 0.494\nsamples = 108\nvalue = [48, 60]\nclass = Lose"] ;
0 -> 1 [labeldistance=2.5, labelangle=45, headlabel="True"] ;
2 [label="min temp <= 34.07\ngini = 0.278\nsamples = 6\nvalue = [1, 5]\nclass = Lose"] ;
1 -> 2 ;
3 [label="min temp <= 32.0\ngini = 0.5\nsamples = 2\nvalue = [1, 1]\nclass = Win"] ;
2 -> 3 ;
4 [label="gini = 0.0\nsamples = 1\nvalue = [0, 1]\nclass = Lose"] ;
3 -> 4 ;
5 [label="gini = 0.0\nsamples = 1\nvalue = [1, 0]\nclass = Win"] ;
3 -> 5 ;
6 [label="gini = 0.0\nsamples = 4\nvalue = [0, 4]\nclass = Lose"] ;
2 -> 6 ;
7 [label="max temp <= 70.07\ngini = 0.497\nsamples = 102\nvalue = [47, 55]\nclass = Lose"] ;
1 -> 7 ;
8 [label="gini = 0.0\nsamples = 4\nvalue = [4, 0]\nclass = Win"] ;
7 -> 8 ;
9 [label="max temp <= 95.0\ngini = 0.493\nsamples = 98\nvalue = [43, 55]\nclass = Lose"] ;
7 -> 9 ;
10 [label="max temp <= 85.46\ngini = 0.495\nsamples = 96\nvalue = [43, 53]\nclass = Lose"] ;
9 -> 10 ;
11 [label="avg wind speed <= 29.188\ngini = 0.489\nsamples = 89\nvalue = [38, 51]\nclass = Lose"] ;
10 -> 11 ;
12 [label="gini = 0.0\nsamples = 2\nvalue = [0, 2]\nclass = Lose"] ;
11 -> 12 ;
13 [label="min temp <= 59.45\ngini = 0.492\nsamples = 87\nvalue = [38, 49]\nclass = Lose"] ;
11 -> 13 ;
14 [label="gini = 0.488\nsamples = 85\nvalue = [36, 49]\nclass = Lose"] ;
13 -> 14 ;
15 [label="gini = 0.0\nsamples = 2\nvalue = [2, 0]\nclass = Win"] ;
13 -> 15 ;
16 [label="min temp <= 65.03\ngini = 0.408\nsamples = 7\nvalue = [5, 2]\nclass = Win"] ;
10 -> 16 ;
17 [label="gini = 0.0\nsamples = 3\nvalue = [3, 0]\nclass = Win"] ;
16 -> 17 ;
18 [label="min temp <= 68.27\ngini = 0.5\nsamples = 4\nvalue = [2, 2]\nclass = Win"] ;
16 -> 18 ;
19 [label="gini = 0.0\nsamples = 1\nvalue = [0, 1]\nclass = Lose"] ;
18 -> 19 ;
20 [label="gini = 0.444\nsamples = 3\nvalue = [2, 1]\nclass = Win"] ;
18 -> 20 ;
21 [label="gini = 0.0\nsamples = 2\nvalue = [0, 2]\nclass = Lose"] ;
9 -> 21 ;
22 [label="gini = 0.0\nsamples = 4\nvalue = [0, 4]\nclass = Lose"] ;
0 -> 22 [labeldistance=2.5, labelangle=-45, headlabel="False"] ;
}