digraph Tree {
node [shape=box] ;
0 [label="avg wind speed <= 39.5\ngini = 0.473\nsamples = 629\nvalue = [241, 388]\nclass = Lose"] ;
1 [label="avg wind speed <= 30.5\ngini = 0.464\nsamples = 589\nvalue = [216, 373]\nclass = Lose"] ;
0 -> 1 [labeldistance=2.5, labelangle=45, headlabel="True"] ;
2 [label="avg wind speed <= 25.5\ngini = 0.471\nsamples = 555\nvalue = [211, 344]\nclass = Lose"] ;
1 -> 2 ;
3 [label="min temp <= 54.5\ngini = 0.372\nsamples = 93\nvalue = [23, 70]\nclass = Lose"] ;
2 -> 3 ;
4 [label="avg wind speed <= 1.0\ngini = 0.449\nsamples = 53\nvalue = [18, 35]\nclass = Lose"] ;
3 -> 4 ;
5 [label="gini = 0.0\nsamples = 1\nvalue = [1, 0]\nclass = Win"] ;
4 -> 5 ;
6 [label="min temp <= 12.47\ngini = 0.44\nsamples = 52\nvalue = [17, 35]\nclass = Lose"] ;
4 -> 6 ;
7 [label="gini = 0.0\nsamples = 1\nvalue = [1, 0]\nclass = Win"] ;
6 -> 7 ;
8 [label="avg wind speed <= 24.5\ngini = 0.431\nsamples = 51\nvalue = [16, 35]\nclass = Lose"] ;
6 -> 8 ;
9 [label="avg wind speed <= 22.5\ngini = 0.444\nsamples = 48\nvalue = [16, 32]\nclass = Lose"] ;
8 -> 9 ;
10 [label="gini = 0.423\nsamples = 46\nvalue = [14, 32]\nclass = Lose"] ;
9 -> 10 ;
11 [label="gini = 0.0\nsamples = 2\nvalue = [2, 0]\nclass = Win"] ;
9 -> 11 ;
12 [label="gini = 0.0\nsamples = 3\nvalue = [0, 3]\nclass = Lose"] ;
8 -> 12 ;
13 [label="min temp <= 63.5\ngini = 0.219\nsamples = 40\nvalue = [5, 35]\nclass = Lose"] ;
3 -> 13 ;
14 [label="gini = 0.0\nsamples = 15\nvalue = [0, 15]\nclass = Lose"] ;
13 -> 14 ;
15 [label="max temp <= 75.47\ngini = 0.32\nsamples = 25\nvalue = [5, 20]\nclass = Lose"] ;
13 -> 15 ;
16 [label="gini = 0.0\nsamples = 1\nvalue = [1, 0]\nclass = Win"] ;
15 -> 16 ;
17 [label="min temp <= 66.47\ngini = 0.278\nsamples = 24\nvalue = [4, 20]\nclass = Lose"] ;
15 -> 17 ;
18 [label="avg wind speed <= 20.5\ngini = 0.469\nsamples = 8\nvalue = [3, 5]\nclass = Lose"] ;
17 -> 18 ;
19 [label="gini = 0.278\nsamples = 6\nvalue = [1, 5]\nclass = Lose"] ;
18 -> 19 ;
20 [label="gini = 0.0\nsamples = 2\nvalue = [2, 0]\nclass = Win"] ;
18 -> 20 ;
21 [label="avg wind speed <= 22.5\ngini = 0.117\nsamples = 16\nvalue = [1, 15]\nclass = Lose"] ;
17 -> 21 ;
22 [label="gini = 0.0\nsamples = 10\nvalue = [0, 10]\nclass = Lose"] ;
21 -> 22 ;
23 [label="gini = 0.278\nsamples = 6\nvalue = [1, 5]\nclass = Lose"] ;
21 -> 23 ;
24 [label="min temp <= 71.51\ngini = 0.483\nsamples = 462\nvalue = [188, 274]\nclass = Lose"] ;
2 -> 24 ;
25 [label="min temp <= 49.351\ngini = 0.481\nsamples = 458\nvalue = [184, 274]\nclass = Lose"] ;
24 -> 25 ;
26 [label="max temp <= 74.48\ngini = 0.5\nsamples = 114\nvalue = [57, 57]\nclass = Win"] ;
25 -> 26 ;
27 [label="min temp <= 40.46\ngini = 0.497\nsamples = 104\nvalue = [48, 56]\nclass = Lose"] ;
26 -> 27 ;
28 [label="avg wind speed <= 28.564\ngini = 0.472\nsamples = 55\nvalue = [21, 34]\nclass = Lose"] ;
27 -> 28 ;
29 [label="gini = 0.46\nsamples = 53\nvalue = [19, 34]\nclass = Lose"] ;
28 -> 29 ;
30 [label="gini = 0.0\nsamples = 2\nvalue = [2, 0]\nclass = Win"] ;
28 -> 30 ;
31 [label="max temp <= 57.47\ngini = 0.495\nsamples = 49\nvalue = [27, 22]\nclass = Win"] ;
27 -> 31 ;
32 [label="gini = 0.198\nsamples = 9\nvalue = [8, 1]\nclass = Win"] ;
31 -> 32 ;
33 [label="gini = 0.499\nsamples = 40\nvalue = [19, 21]\nclass = Lose"] ;
31 -> 33 ;
34 [label="min temp <= 48.47\ngini = 0.18\nsamples = 10\nvalue = [9, 1]\nclass = Win"] ;
26 -> 34 ;
35 [label="gini = 0.0\nsamples = 7\nvalue = [7, 0]\nclass = Win"] ;
34 -> 35 ;
36 [label="max temp <= 77.54\ngini = 0.444\nsamples = 3\nvalue = [2, 1]\nclass = Win"] ;
34 -> 36 ;
37 [label="gini = 0.0\nsamples = 1\nvalue = [1, 0]\nclass = Win"] ;
36 -> 37 ;
38 [label="gini = 0.5\nsamples = 2\nvalue = [1, 1]\nclass = Win"] ;
36 -> 38 ;
39 [label="max temp <= 61.52\ngini = 0.466\nsamples = 344\nvalue = [127, 217]\nclass = Lose"] ;
25 -> 39 ;
40 [label="gini = 0.0\nsamples = 3\nvalue = [3, 0]\nclass = Win"] ;
39 -> 40 ;
41 [label="max temp <= 68.09\ngini = 0.463\nsamples = 341\nvalue = [124, 217]\nclass = Lose"] ;
39 -> 41 ;
42 [label="min temp <= 53.51\ngini = 0.497\nsamples = 13\nvalue = [7, 6]\nclass = Win"] ;
41 -> 42 ;
43 [label="gini = 0.375\nsamples = 8\nvalue = [6, 2]\nclass = Win"] ;
42 -> 43 ;
44 [label="gini = 0.32\nsamples = 5\nvalue = [1, 4]\nclass = Lose"] ;
42 -> 44 ;
45 [label="max temp <= 100.94\ngini = 0.459\nsamples = 328\nvalue = [117, 211]\nclass = Lose"] ;
41 -> 45 ;
46 [label="gini = 0.458\nsamples = 327\nvalue = [116, 211]\nclass = Lose"] ;
45 -> 46 ;
47 [label="gini = 0.0\nsamples = 1\nvalue = [1, 0]\nclass = Win"] ;
45 -> 47 ;
48 [label="gini = 0.0\nsamples = 4\nvalue = [4, 0]\nclass = Win"] ;
24 -> 48 ;
49 [label="max temp <= 65.93\ngini = 0.251\nsamples = 34\nvalue = [5, 29]\nclass = Lose"] ;
1 -> 49 ;
50 [label="min temp <= 44.51\ngini = 0.346\nsamples = 18\nvalue = [4, 14]\nclass = Lose"] ;
49 -> 50 ;
51 [label="avg wind speed <= 31.5\ngini = 0.231\nsamples = 15\nvalue = [2, 13]\nclass = Lose"] ;
50 -> 51 ;
52 [label="min temp <= 37.49\ngini = 0.5\nsamples = 2\nvalue = [1, 1]\nclass = Win"] ;
51 -> 52 ;
53 [label="gini = 0.0\nsamples = 1\nvalue = [0, 1]\nclass = Lose"] ;
52 -> 53 ;
54 [label="gini = 0.0\nsamples = 1\nvalue = [1, 0]\nclass = Win"] ;
52 -> 54 ;
55 [label="max temp <= 44.51\ngini = 0.142\nsamples = 13\nvalue = [1, 12]\nclass = Lose"] ;
51 -> 55 ;
56 [label="min temp <= 30.02\ngini = 0.375\nsamples = 4\nvalue = [1, 3]\nclass = Lose"] ;
55 -> 56 ;
57 [label="gini = 0.0\nsamples = 3\nvalue = [0, 3]\nclass = Lose"] ;
56 -> 57 ;
58 [label="gini = 0.0\nsamples = 1\nvalue = [1, 0]\nclass = Win"] ;
56 -> 58 ;
59 [label="gini = 0.0\nsamples = 9\nvalue = [0, 9]\nclass = Lose"] ;
55 -> 59 ;
60 [label="avg wind speed <= 31.5\ngini = 0.444\nsamples = 3\nvalue = [2, 1]\nclass = Win"] ;
50 -> 60 ;
61 [label="gini = 0.0\nsamples = 1\nvalue = [0, 1]\nclass = Lose"] ;
60 -> 61 ;
62 [label="gini = 0.0\nsamples = 2\nvalue = [2, 0]\nclass = Win"] ;
60 -> 62 ;
63 [label="avg wind speed <= 37.0\ngini = 0.117\nsamples = 16\nvalue = [1, 15]\nclass = Lose"] ;
49 -> 63 ;
64 [label="gini = 0.0\nsamples = 13\nvalue = [0, 13]\nclass = Lose"] ;
63 -> 64 ;
65 [label="min temp <= 52.07\ngini = 0.444\nsamples = 3\nvalue = [1, 2]\nclass = Lose"] ;
63 -> 65 ;
66 [label="gini = 0.0\nsamples = 2\nvalue = [0, 2]\nclass = Lose"] ;
65 -> 66 ;
67 [label="gini = 0.0\nsamples = 1\nvalue = [1, 0]\nclass = Win"] ;
65 -> 67 ;
68 [label="avg wind speed <= 42.5\ngini = 0.469\nsamples = 40\nvalue = [25, 15]\nclass = Win"] ;
0 -> 68 [labeldistance=2.5, labelangle=-45, headlabel="False"] ;
69 [label="avg wind speed <= 41.5\ngini = 0.153\nsamples = 12\nvalue = [11, 1]\nclass = Win"] ;
68 -> 69 ;
70 [label="gini = 0.0\nsamples = 8\nvalue = [8, 0]\nclass = Win"] ;
69 -> 70 ;
71 [label="min temp <= 40.46\ngini = 0.375\nsamples = 4\nvalue = [3, 1]\nclass = Win"] ;
69 -> 71 ;
72 [label="min temp <= 37.94\ngini = 0.5\nsamples = 2\nvalue = [1, 1]\nclass = Win"] ;
71 -> 72 ;
73 [label="gini = 0.0\nsamples = 1\nvalue = [1, 0]\nclass = Win"] ;
72 -> 73 ;
74 [label="gini = 0.0\nsamples = 1\nvalue = [0, 1]\nclass = Lose"] ;
72 -> 74 ;
75 [label="gini = 0.0\nsamples = 2\nvalue = [2, 0]\nclass = Win"] ;
71 -> 75 ;
76 [label="min temp <= 58.01\ngini = 0.5\nsamples = 28\nvalue = [14, 14]\nclass = Win"] ;
68 -> 76 ;
77 [label="min temp <= 53.51\ngini = 0.472\nsamples = 21\nvalue = [13, 8]\nclass = Win"] ;
76 -> 77 ;
78 [label="min temp <= 51.53\ngini = 0.498\nsamples = 17\nvalue = [9, 8]\nclass = Win"] ;
77 -> 78 ;
79 [label="max temp <= 59.54\ngini = 0.459\nsamples = 14\nvalue = [9, 5]\nclass = Win"] ;
78 -> 79 ;
80 [label="max temp <= 54.5\ngini = 0.494\nsamples = 9\nvalue = [4, 5]\nclass = Lose"] ;
79 -> 80 ;
81 [label="min temp <= 27.5\ngini = 0.444\nsamples = 6\nvalue = [4, 2]\nclass = Win"] ;
80 -> 81 ;
82 [label="gini = 0.0\nsamples = 1\nvalue = [0, 1]\nclass = Lose"] ;
81 -> 82 ;
83 [label="gini = 0.32\nsamples = 5\nvalue = [4, 1]\nclass = Win"] ;
81 -> 83 ;
84 [label="gini = 0.0\nsamples = 3\nvalue = [0, 3]\nclass = Lose"] ;
80 -> 84 ;
85 [label="gini = 0.0\nsamples = 5\nvalue = [5, 0]\nclass = Win"] ;
79 -> 85 ;
86 [label="gini = 0.0\nsamples = 3\nvalue = [0, 3]\nclass = Lose"] ;
78 -> 86 ;
87 [label="gini = 0.0\nsamples = 4\nvalue = [4, 0]\nclass = Win"] ;
77 -> 87 ;
88 [label="min temp <= 63.5\ngini = 0.245\nsamples = 7\nvalue = [1, 6]\nclass = Lose"] ;
76 -> 88 ;
89 [label="avg wind speed <= 46.0\ngini = 0.444\nsamples = 3\nvalue = [1, 2]\nclass = Lose"] ;
88 -> 89 ;
90 [label="gini = 0.0\nsamples = 1\nvalue = [1, 0]\nclass = Win"] ;
89 -> 90 ;
91 [label="gini = 0.0\nsamples = 2\nvalue = [0, 2]\nclass = Lose"] ;
89 -> 91 ;
92 [label="gini = 0.0\nsamples = 4\nvalue = [0, 4]\nclass = Lose"] ;
88 -> 92 ;
}