digraph Tree {
node [shape=box] ;
0 [label="score <= 22.5\ngini = 0.477\nsamples = 314\nvalue = [123, 191]\nclass = Lose"] ;
1 [label="score <= 15.0\ngini = 0.324\nsamples = 113\nvalue = [90, 23]\nclass = Win"] ;
0 -> 1 [labeldistance=2.5, labelangle=45, headlabel="True"] ;
2 [label="attendance <= 108234.5\ngini = 0.14\nsamples = 53\nvalue = [49, 4]\nclass = Win"] ;
1 -> 2 ;
3 [label="min temp <= 29.93\ngini = 0.109\nsamples = 52\nvalue = [49, 3]\nclass = Win"] ;
2 -> 3 ;
4 [label="gini = 0.444\nsamples = 3\nvalue = [2, 1]\nclass = Win"] ;
3 -> 4 ;
5 [label="gini = 0.078\nsamples = 49\nvalue = [47, 2]\nclass = Win"] ;
3 -> 5 ;
6 [label="gini = 0.0\nsamples = 1\nvalue = [0, 1]\nclass = Lose"] ;
2 -> 6 ;
7 [label="avg wind speed <= 28.0\ngini = 0.433\nsamples = 60\nvalue = [41, 19]\nclass = Win"] ;
1 -> 7 ;
8 [label="score <= 19.5\ngini = 0.444\nsamples = 9\nvalue = [3, 6]\nclass = Lose"] ;
7 -> 8 ;
9 [label="gini = 0.0\nsamples = 6\nvalue = [0, 6]\nclass = Lose"] ;
8 -> 9 ;
10 [label="gini = 0.0\nsamples = 3\nvalue = [3, 0]\nclass = Win"] ;
8 -> 10 ;
11 [label="attendance <= 89060.5\ngini = 0.38\nsamples = 51\nvalue = [38, 13]\nclass = Win"] ;
7 -> 11 ;
12 [label="gini = 0.348\nsamples = 49\nvalue = [38, 11]\nclass = Win"] ;
11 -> 12 ;
13 [label="gini = 0.0\nsamples = 2\nvalue = [0, 2]\nclass = Lose"] ;
11 -> 13 ;
14 [label="score <= 34.5\ngini = 0.274\nsamples = 201\nvalue = [33, 168]\nclass = Lose"] ;
0 -> 14 [labeldistance=2.5, labelangle=-45, headlabel="False"] ;
15 [label="min temp <= 65.93\ngini = 0.431\nsamples = 89\nvalue = [28, 61]\nclass = Lose"] ;
14 -> 15 ;
16 [label="attendance <= 2188.0\ngini = 0.407\nsamples = 81\nvalue = [23, 58]\nclass = Lose"] ;
15 -> 16 ;
17 [label="gini = 0.264\nsamples = 32\nvalue = [5, 27]\nclass = Lose"] ;
16 -> 17 ;
18 [label="gini = 0.465\nsamples = 49\nvalue = [18, 31]\nclass = Lose"] ;
16 -> 18 ;
19 [label="max temp <= 87.53\ngini = 0.469\nsamples = 8\nvalue = [5, 3]\nclass = Win"] ;
15 -> 19 ;
20 [label="gini = 0.48\nsamples = 5\nvalue = [2, 3]\nclass = Lose"] ;
19 -> 20 ;
21 [label="gini = 0.0\nsamples = 3\nvalue = [3, 0]\nclass = Win"] ;
19 -> 21 ;
22 [label="max temp <= 47.48\ngini = 0.085\nsamples = 112\nvalue = [5, 107]\nclass = Lose"] ;
14 -> 22 ;
23 [label="max temp <= 46.49\ngini = 0.32\nsamples = 5\nvalue = [1, 4]\nclass = Lose"] ;
22 -> 23 ;
24 [label="gini = 0.0\nsamples = 4\nvalue = [0, 4]\nclass = Lose"] ;
23 -> 24 ;
25 [label="gini = 0.0\nsamples = 1\nvalue = [1, 0]\nclass = Win"] ;
23 -> 25 ;
26 [label="score <= 35.5\ngini = 0.072\nsamples = 107\nvalue = [4, 103]\nclass = Lose"] ;
22 -> 26 ;
27 [label="gini = 0.32\nsamples = 5\nvalue = [1, 4]\nclass = Lose"] ;
26 -> 27 ;
28 [label="gini = 0.057\nsamples = 102\nvalue = [3, 99]\nclass = Lose"] ;
26 -> 28 ;
}