digraph Tree {
node [shape=box] ;
0 [label="attendance <= 53023.0\ngini = 0.497\nsamples = 56\nvalue = [26, 30]\nclass = Lose"] ;
1 [label="attendance <= 30811.5\ngini = 0.5\nsamples = 45\nvalue = [23, 22]\nclass = Win"] ;
0 -> 1 [labeldistance=2.5, labelangle=45, headlabel="True"] ;
2 [label="attendance <= 7653.5\ngini = 0.466\nsamples = 27\nvalue = [10, 17]\nclass = Lose"] ;
1 -> 2 ;
3 [label="min temp <= 62.541\ngini = 0.375\nsamples = 4\nvalue = [3, 1]\nclass = Win"] ;
2 -> 3 ;
4 [label="gini = 0.0\nsamples = 2\nvalue = [2, 0]\nclass = Win"] ;
3 -> 4 ;
5 [label="max temp <= 91.04\ngini = 0.5\nsamples = 2\nvalue = [1, 1]\nclass = Win"] ;
3 -> 5 ;
6 [label="gini = 0.0\nsamples = 1\nvalue = [0, 1]\nclass = Lose"] ;
5 -> 6 ;
7 [label="gini = 0.0\nsamples = 1\nvalue = [1, 0]\nclass = Win"] ;
5 -> 7 ;
8 [label="avg wind speed <= 19.5\ngini = 0.423\nsamples = 23\nvalue = [7, 16]\nclass = Lose"] ;
2 -> 8 ;
9 [label="gini = 0.0\nsamples = 1\nvalue = [1, 0]\nclass = Win"] ;
8 -> 9 ;
10 [label="min temp <= 40.01\ngini = 0.397\nsamples = 22\nvalue = [6, 16]\nclass = Lose"] ;
8 -> 10 ;
11 [label="gini = 0.0\nsamples = 1\nvalue = [1, 0]\nclass = Win"] ;
10 -> 11 ;
12 [label="home <= 0.5\ngini = 0.363\nsamples = 21\nvalue = [5, 16]\nclass = Lose"] ;
10 -> 12 ;
13 [label="gini = 0.0\nsamples = 1\nvalue = [1, 0]\nclass = Win"] ;
12 -> 13 ;
14 [label="attendance <= 19427.5\ngini = 0.32\nsamples = 20\nvalue = [4, 16]\nclass = Lose"] ;
12 -> 14 ;
15 [label="gini = 0.0\nsamples = 7\nvalue = [0, 7]\nclass = Lose"] ;
14 -> 15 ;
16 [label="attendance <= 19887.5\ngini = 0.426\nsamples = 13\nvalue = [4, 9]\nclass = Lose"] ;
14 -> 16 ;
17 [label="gini = 0.0\nsamples = 1\nvalue = [1, 0]\nclass = Win"] ;
16 -> 17 ;
18 [label="max temp <= 75.294\ngini = 0.375\nsamples = 12\nvalue = [3, 9]\nclass = Lose"] ;
16 -> 18 ;
19 [label="max temp <= 62.06\ngini = 0.5\nsamples = 2\nvalue = [1, 1]\nclass = Win"] ;
18 -> 19 ;
20 [label="gini = 0.0\nsamples = 1\nvalue = [0, 1]\nclass = Lose"] ;
19 -> 20 ;
21 [label="gini = 0.0\nsamples = 1\nvalue = [1, 0]\nclass = Win"] ;
19 -> 21 ;
22 [label="attendance <= 21140.0\ngini = 0.32\nsamples = 10\nvalue = [2, 8]\nclass = Lose"] ;
18 -> 22 ;
23 [label="attendance <= 20110.0\ngini = 0.5\nsamples = 2\nvalue = [1, 1]\nclass = Win"] ;
22 -> 23 ;
24 [label="gini = 0.0\nsamples = 1\nvalue = [0, 1]\nclass = Lose"] ;
23 -> 24 ;
25 [label="gini = 0.0\nsamples = 1\nvalue = [1, 0]\nclass = Win"] ;
23 -> 25 ;
26 [label="attendance <= 29729.0\ngini = 0.219\nsamples = 8\nvalue = [1, 7]\nclass = Lose"] ;
22 -> 26 ;
27 [label="gini = 0.0\nsamples = 6\nvalue = [0, 6]\nclass = Lose"] ;
26 -> 27 ;
28 [label="max temp <= 81.234\ngini = 0.5\nsamples = 2\nvalue = [1, 1]\nclass = Win"] ;
26 -> 28 ;
29 [label="gini = 0.0\nsamples = 1\nvalue = [1, 0]\nclass = Win"] ;
28 -> 29 ;
30 [label="gini = 0.0\nsamples = 1\nvalue = [0, 1]\nclass = Lose"] ;
28 -> 30 ;
31 [label="attendance <= 40890.5\ngini = 0.401\nsamples = 18\nvalue = [13, 5]\nclass = Win"] ;
1 -> 31 ;
32 [label="attendance <= 32672.0\ngini = 0.18\nsamples = 10\nvalue = [9, 1]\nclass = Win"] ;
31 -> 32 ;
33 [label="attendance <= 32368.5\ngini = 0.32\nsamples = 5\nvalue = [4, 1]\nclass = Win"] ;
32 -> 33 ;
34 [label="gini = 0.0\nsamples = 4\nvalue = [4, 0]\nclass = Win"] ;
33 -> 34 ;
35 [label="gini = 0.0\nsamples = 1\nvalue = [0, 1]\nclass = Lose"] ;
33 -> 35 ;
36 [label="gini = 0.0\nsamples = 5\nvalue = [5, 0]\nclass = Win"] ;
32 -> 36 ;
37 [label="attendance <= 50190.0\ngini = 0.5\nsamples = 8\nvalue = [4, 4]\nclass = Win"] ;
31 -> 37 ;
38 [label="max temp <= 73.314\ngini = 0.444\nsamples = 6\nvalue = [2, 4]\nclass = Lose"] ;
37 -> 38 ;
39 [label="min temp <= 48.47\ngini = 0.444\nsamples = 3\nvalue = [2, 1]\nclass = Win"] ;
38 -> 39 ;
40 [label="gini = 0.0\nsamples = 1\nvalue = [0, 1]\nclass = Lose"] ;
39 -> 40 ;
41 [label="gini = 0.0\nsamples = 2\nvalue = [2, 0]\nclass = Win"] ;
39 -> 41 ;
42 [label="gini = 0.0\nsamples = 3\nvalue = [0, 3]\nclass = Lose"] ;
38 -> 42 ;
43 [label="gini = 0.0\nsamples = 2\nvalue = [2, 0]\nclass = Win"] ;
37 -> 43 ;
44 [label="attendance <= 56320.5\ngini = 0.397\nsamples = 11\nvalue = [3, 8]\nclass = Lose"] ;
0 -> 44 [labeldistance=2.5, labelangle=-45, headlabel="False"] ;
45 [label="gini = 0.0\nsamples = 5\nvalue = [0, 5]\nclass = Lose"] ;
44 -> 45 ;
46 [label="min temp <= 54.531\ngini = 0.5\nsamples = 6\nvalue = [3, 3]\nclass = Win"] ;
44 -> 46 ;
47 [label="gini = 0.0\nsamples = 2\nvalue = [2, 0]\nclass = Win"] ;
46 -> 47 ;
48 [label="attendance <= 72112.0\ngini = 0.375\nsamples = 4\nvalue = [1, 3]\nclass = Lose"] ;
46 -> 48 ;
49 [label="gini = 0.0\nsamples = 3\nvalue = [0, 3]\nclass = Lose"] ;
48 -> 49 ;
50 [label="gini = 0.0\nsamples = 1\nvalue = [1, 0]\nclass = Win"] ;
48 -> 50 ;
}