digraph Tree {
node [shape=box] ;
0 [label="attendance <= 53023.0\ngini = 0.497\nsamples = 56\nvalue = [26, 30]\nclass = Lose"] ;
1 [label="attendance <= 30811.5\ngini = 0.5\nsamples = 45\nvalue = [23, 22]\nclass = Win"] ;
0 -> 1 [labeldistance=2.5, labelangle=45, headlabel="True"] ;
2 [label="gini = 0.466\nsamples = 27\nvalue = [10, 17]\nclass = Lose"] ;
1 -> 2 ;
3 [label="gini = 0.401\nsamples = 18\nvalue = [13, 5]\nclass = Win"] ;
1 -> 3 ;
4 [label="attendance <= 56320.5\ngini = 0.397\nsamples = 11\nvalue = [3, 8]\nclass = Lose"] ;
0 -> 4 [labeldistance=2.5, labelangle=-45, headlabel="False"] ;
5 [label="gini = 0.0\nsamples = 5\nvalue = [0, 5]\nclass = Lose"] ;
4 -> 5 ;
6 [label="gini = 0.5\nsamples = 6\nvalue = [3, 3]\nclass = Win"] ;
4 -> 6 ;
}