digraph Tree {
node [shape=box] ;
0 [label="avg wind speed <= 25.5\ngini = 0.477\nsamples = 314\nvalue = [123, 191]\nclass = Lose"] ;
1 [label="avg wind speed <= 1.0\ngini = 0.268\nsamples = 44\nvalue = [7, 37]\nclass = Lose"] ;
0 -> 1 [labeldistance=2.5, labelangle=45, headlabel="True"] ;
2 [label="gini = 0.0\nsamples = 1\nvalue = [1, 0]\nclass = Win"] ;
1 -> 2 ;
3 [label="gini = 0.24\nsamples = 43\nvalue = [6, 37]\nclass = Lose"] ;
1 -> 3 ;
4 [label="attendance <= 57347.5\ngini = 0.49\nsamples = 270\nvalue = [116, 154]\nclass = Lose"] ;
0 -> 4 [labeldistance=2.5, labelangle=-45, headlabel="False"] ;
5 [label="gini = 0.498\nsamples = 203\nvalue = [95, 108]\nclass = Lose"] ;
4 -> 5 ;
6 [label="gini = 0.43\nsamples = 67\nvalue = [21, 46]\nclass = Lose"] ;
4 -> 6 ;
}