digraph Tree {
node [shape=box] ;
0 [label="avg wind speed <= 25.5\ngini = 0.477\nsamples = 314\nvalue = [123, 191]\nclass = Lose"] ;
1 [label="avg wind speed <= 1.0\ngini = 0.268\nsamples = 44\nvalue = [7, 37]\nclass = Lose"] ;
0 -> 1 [labeldistance=2.5, labelangle=45, headlabel="True"] ;
2 [label="gini = 0.0\nsamples = 1\nvalue = [1, 0]\nclass = Win"] ;
1 -> 2 ;
3 [label="min temp <= 47.03\ngini = 0.24\nsamples = 43\nvalue = [6, 37]\nclass = Lose"] ;
1 -> 3 ;
4 [label="gini = 0.0\nsamples = 13\nvalue = [0, 13]\nclass = Lose"] ;
3 -> 4 ;
5 [label="max temp <= 68.99\ngini = 0.32\nsamples = 30\nvalue = [6, 24]\nclass = Lose"] ;
3 -> 5 ;
6 [label="min temp <= 49.01\ngini = 0.375\nsamples = 4\nvalue = [3, 1]\nclass = Win"] ;
5 -> 6 ;
7 [label="max temp <= 67.01\ngini = 0.5\nsamples = 2\nvalue = [1, 1]\nclass = Win"] ;
6 -> 7 ;
8 [label="gini = 0.0\nsamples = 1\nvalue = [0, 1]\nclass = Lose"] ;
7 -> 8 ;
9 [label="gini = 0.0\nsamples = 1\nvalue = [1, 0]\nclass = Win"] ;
7 -> 9 ;
10 [label="gini = 0.0\nsamples = 2\nvalue = [2, 0]\nclass = Win"] ;
6 -> 10 ;
11 [label="max temp <= 83.93\ngini = 0.204\nsamples = 26\nvalue = [3, 23]\nclass = Lose"] ;
5 -> 11 ;
12 [label="gini = 0.0\nsamples = 10\nvalue = [0, 10]\nclass = Lose"] ;
11 -> 12 ;
13 [label="avg wind speed <= 12.0\ngini = 0.305\nsamples = 16\nvalue = [3, 13]\nclass = Lose"] ;
11 -> 13 ;
14 [label="gini = 0.0\nsamples = 1\nvalue = [1, 0]\nclass = Win"] ;
13 -> 14 ;
15 [label="max temp <= 85.46\ngini = 0.231\nsamples = 15\nvalue = [2, 13]\nclass = Lose"] ;
13 -> 15 ;
16 [label="avg wind speed <= 24.0\ngini = 0.5\nsamples = 2\nvalue = [1, 1]\nclass = Win"] ;
15 -> 16 ;
17 [label="gini = 0.0\nsamples = 1\nvalue = [0, 1]\nclass = Lose"] ;
16 -> 17 ;
18 [label="gini = 0.0\nsamples = 1\nvalue = [1, 0]\nclass = Win"] ;
16 -> 18 ;
19 [label="max temp <= 88.52\ngini = 0.142\nsamples = 13\nvalue = [1, 12]\nclass = Lose"] ;
15 -> 19 ;
20 [label="max temp <= 87.53\ngini = 0.245\nsamples = 7\nvalue = [1, 6]\nclass = Lose"] ;
19 -> 20 ;
21 [label="gini = 0.0\nsamples = 5\nvalue = [0, 5]\nclass = Lose"] ;
20 -> 21 ;
22 [label="min temp <= 69.53\ngini = 0.5\nsamples = 2\nvalue = [1, 1]\nclass = Win"] ;
20 -> 22 ;
23 [label="gini = 0.0\nsamples = 1\nvalue = [1, 0]\nclass = Win"] ;
22 -> 23 ;
24 [label="gini = 0.0\nsamples = 1\nvalue = [0, 1]\nclass = Lose"] ;
22 -> 24 ;
25 [label="gini = 0.0\nsamples = 6\nvalue = [0, 6]\nclass = Lose"] ;
19 -> 25 ;
26 [label="attendance <= 57347.5\ngini = 0.49\nsamples = 270\nvalue = [116, 154]\nclass = Lose"] ;
0 -> 26 [labeldistance=2.5, labelangle=-45, headlabel="False"] ;
27 [label="max temp <= 68.54\ngini = 0.498\nsamples = 203\nvalue = [95, 108]\nclass = Lose"] ;
26 -> 27 ;
28 [label="min temp <= 47.48\ngini = 0.478\nsamples = 53\nvalue = [32, 21]\nclass = Win"] ;
27 -> 28 ;
29 [label="max temp <= 48.47\ngini = 0.499\nsamples = 44\nvalue = [23, 21]\nclass = Win"] ;
28 -> 29 ;
30 [label="avg wind speed <= 68.5\ngini = 0.346\nsamples = 9\nvalue = [2, 7]\nclass = Lose"] ;
29 -> 30 ;
31 [label="min temp <= 36.05\ngini = 0.219\nsamples = 8\nvalue = [1, 7]\nclass = Lose"] ;
30 -> 31 ;
32 [label="gini = 0.0\nsamples = 6\nvalue = [0, 6]\nclass = Lose"] ;
31 -> 32 ;
33 [label="attendance <= 16516.0\ngini = 0.5\nsamples = 2\nvalue = [1, 1]\nclass = Win"] ;
31 -> 33 ;
34 [label="gini = 0.0\nsamples = 1\nvalue = [1, 0]\nclass = Win"] ;
33 -> 34 ;
35 [label="gini = 0.0\nsamples = 1\nvalue = [0, 1]\nclass = Lose"] ;
33 -> 35 ;
36 [label="gini = 0.0\nsamples = 1\nvalue = [1, 0]\nclass = Win"] ;
30 -> 36 ;
37 [label="attendance <= 31492.5\ngini = 0.48\nsamples = 35\nvalue = [21, 14]\nclass = Win"] ;
29 -> 37 ;
38 [label="max temp <= 56.48\ngini = 0.499\nsamples = 29\nvalue = [15, 14]\nclass = Win"] ;
37 -> 38 ;
39 [label="min temp <= 45.5\ngini = 0.346\nsamples = 9\nvalue = [7, 2]\nclass = Win"] ;
38 -> 39 ;
40 [label="avg wind speed <= 50.5\ngini = 0.219\nsamples = 8\nvalue = [7, 1]\nclass = Win"] ;
39 -> 40 ;
41 [label="gini = 0.0\nsamples = 6\nvalue = [6, 0]\nclass = Win"] ;
40 -> 41 ;
42 [label="max temp <= 50.0\ngini = 0.5\nsamples = 2\nvalue = [1, 1]\nclass = Win"] ;
40 -> 42 ;
43 [label="gini = 0.0\nsamples = 1\nvalue = [1, 0]\nclass = Win"] ;
42 -> 43 ;
44 [label="gini = 0.0\nsamples = 1\nvalue = [0, 1]\nclass = Lose"] ;
42 -> 44 ;
45 [label="gini = 0.0\nsamples = 1\nvalue = [0, 1]\nclass = Lose"] ;
39 -> 45 ;
46 [label="min temp <= 37.49\ngini = 0.48\nsamples = 20\nvalue = [8, 12]\nclass = Lose"] ;
38 -> 46 ;
47 [label="gini = 0.0\nsamples = 5\nvalue = [0, 5]\nclass = Lose"] ;
46 -> 47 ;
48 [label="attendance <= 19455.0\ngini = 0.498\nsamples = 15\nvalue = [8, 7]\nclass = Win"] ;
46 -> 48 ;
49 [label="avg wind speed <= 30.016\ngini = 0.444\nsamples = 12\nvalue = [8, 4]\nclass = Win"] ;
48 -> 49 ;
50 [label="gini = 0.0\nsamples = 1\nvalue = [0, 1]\nclass = Lose"] ;
49 -> 50 ;
51 [label="gini = 0.397\nsamples = 11\nvalue = [8, 3]\nclass = Win"] ;
49 -> 51 ;
52 [label="gini = 0.0\nsamples = 3\nvalue = [0, 3]\nclass = Lose"] ;
48 -> 52 ;
53 [label="gini = 0.0\nsamples = 6\nvalue = [6, 0]\nclass = Win"] ;
37 -> 53 ;
54 [label="gini = 0.0\nsamples = 9\nvalue = [9, 0]\nclass = Win"] ;
28 -> 54 ;
55 [label="avg wind speed <= 30.516\ngini = 0.487\nsamples = 150\nvalue = [63, 87]\nclass = Lose"] ;
27 -> 55 ;
56 [label="min temp <= 50.096\ngini = 0.496\nsamples = 134\nvalue = [61, 73]\nclass = Lose"] ;
55 -> 56 ;
57 [label="max temp <= 70.07\ngini = 0.375\nsamples = 12\nvalue = [9, 3]\nclass = Win"] ;
56 -> 57 ;
58 [label="gini = 0.0\nsamples = 1\nvalue = [0, 1]\nclass = Lose"] ;
57 -> 58 ;
59 [label="attendance <= 18122.0\ngini = 0.298\nsamples = 11\nvalue = [9, 2]\nclass = Win"] ;
57 -> 59 ;
60 [label="attendance <= 6488.0\ngini = 0.444\nsamples = 6\nvalue = [4, 2]\nclass = Win"] ;
59 -> 60 ;
61 [label="min temp <= 43.43\ngini = 0.32\nsamples = 5\nvalue = [4, 1]\nclass = Win"] ;
60 -> 61 ;
62 [label="max temp <= 72.95\ngini = 0.444\nsamples = 3\nvalue = [2, 1]\nclass = Win"] ;
61 -> 62 ;
63 [label="gini = 0.0\nsamples = 2\nvalue = [2, 0]\nclass = Win"] ;
62 -> 63 ;
64 [label="gini = 0.0\nsamples = 1\nvalue = [0, 1]\nclass = Lose"] ;
62 -> 64 ;
65 [label="gini = 0.0\nsamples = 2\nvalue = [2, 0]\nclass = Win"] ;
61 -> 65 ;
66 [label="gini = 0.0\nsamples = 1\nvalue = [0, 1]\nclass = Lose"] ;
60 -> 66 ;
67 [label="gini = 0.0\nsamples = 5\nvalue = [5, 0]\nclass = Win"] ;
59 -> 67 ;
68 [label="attendance <= 54859.0\ngini = 0.489\nsamples = 122\nvalue = [52, 70]\nclass = Lose"] ;
56 -> 68 ;
69 [label="attendance <= 28006.0\ngini = 0.482\nsamples = 116\nvalue = [47, 69]\nclass = Lose"] ;
68 -> 69 ;
70 [label="min temp <= 66.47\ngini = 0.499\nsamples = 79\nvalue = [38, 41]\nclass = Lose"] ;
69 -> 70 ;
71 [label="attendance <= 12076.5\ngini = 0.494\nsamples = 74\nvalue = [33, 41]\nclass = Lose"] ;
70 -> 71 ;
72 [label="max temp <= 88.52\ngini = 0.453\nsamples = 52\nvalue = [18, 34]\nclass = Lose"] ;
71 -> 72 ;
73 [label="gini = 0.43\nsamples = 48\nvalue = [15, 33]\nclass = Lose"] ;
72 -> 73 ;
74 [label="gini = 0.375\nsamples = 4\nvalue = [3, 1]\nclass = Win"] ;
72 -> 74 ;
75 [label="attendance <= 13983.0\ngini = 0.434\nsamples = 22\nvalue = [15, 7]\nclass = Win"] ;
71 -> 75 ;
76 [label="gini = 0.0\nsamples = 2\nvalue = [2, 0]\nclass = Win"] ;
75 -> 76 ;
77 [label="gini = 0.455\nsamples = 20\nvalue = [13, 7]\nclass = Win"] ;
75 -> 77 ;
78 [label="gini = 0.0\nsamples = 5\nvalue = [5, 0]\nclass = Win"] ;
70 -> 78 ;
79 [label="attendance <= 47466.0\ngini = 0.368\nsamples = 37\nvalue = [9, 28]\nclass = Lose"] ;
69 -> 79 ;
80 [label="attendance <= 42220.0\ngini = 0.42\nsamples = 30\nvalue = [9, 21]\nclass = Lose"] ;
79 -> 80 ;
81 [label="min temp <= 62.51\ngini = 0.308\nsamples = 21\nvalue = [4, 17]\nclass = Lose"] ;
80 -> 81 ;
82 [label="gini = 0.198\nsamples = 18\nvalue = [2, 16]\nclass = Lose"] ;
81 -> 82 ;
83 [label="gini = 0.444\nsamples = 3\nvalue = [2, 1]\nclass = Win"] ;
81 -> 83 ;
84 [label="attendance <= 43918.0\ngini = 0.494\nsamples = 9\nvalue = [5, 4]\nclass = Win"] ;
80 -> 84 ;
85 [label="gini = 0.0\nsamples = 3\nvalue = [3, 0]\nclass = Win"] ;
84 -> 85 ;
86 [label="gini = 0.444\nsamples = 6\nvalue = [2, 4]\nclass = Lose"] ;
84 -> 86 ;
87 [label="gini = 0.0\nsamples = 7\nvalue = [0, 7]\nclass = Lose"] ;
79 -> 87 ;
88 [label="attendance <= 55267.5\ngini = 0.278\nsamples = 6\nvalue = [5, 1]\nclass = Win"] ;
68 -> 88 ;
89 [label="gini = 0.0\nsamples = 3\nvalue = [3, 0]\nclass = Win"] ;
88 -> 89 ;
90 [label="attendance <= 55447.5\ngini = 0.444\nsamples = 3\nvalue = [2, 1]\nclass = Win"] ;
88 -> 90 ;
91 [label="gini = 0.0\nsamples = 1\nvalue = [0, 1]\nclass = Lose"] ;
90 -> 91 ;
92 [label="gini = 0.0\nsamples = 2\nvalue = [2, 0]\nclass = Win"] ;
90 -> 92 ;
93 [label="min temp <= 36.95\ngini = 0.219\nsamples = 16\nvalue = [2, 14]\nclass = Lose"] ;
55 -> 93 ;
94 [label="gini = 0.0\nsamples = 1\nvalue = [1, 0]\nclass = Win"] ;
93 -> 94 ;
95 [label="avg wind speed <= 38.5\ngini = 0.124\nsamples = 15\nvalue = [1, 14]\nclass = Lose"] ;
93 -> 95 ;
96 [label="avg wind speed <= 36.5\ngini = 0.245\nsamples = 7\nvalue = [1, 6]\nclass = Lose"] ;
95 -> 96 ;
97 [label="gini = 0.0\nsamples = 5\nvalue = [0, 5]\nclass = Lose"] ;
96 -> 97 ;
98 [label="min temp <= 47.57\ngini = 0.5\nsamples = 2\nvalue = [1, 1]\nclass = Win"] ;
96 -> 98 ;
99 [label="gini = 0.0\nsamples = 1\nvalue = [0, 1]\nclass = Lose"] ;
98 -> 99 ;
100 [label="gini = 0.0\nsamples = 1\nvalue = [1, 0]\nclass = Win"] ;
98 -> 100 ;
101 [label="gini = 0.0\nsamples = 8\nvalue = [0, 8]\nclass = Lose"] ;
95 -> 101 ;
102 [label="min temp <= 63.5\ngini = 0.43\nsamples = 67\nvalue = [21, 46]\nclass = Lose"] ;
26 -> 102 ;
103 [label="avg wind speed <= 55.0\ngini = 0.406\nsamples = 60\nvalue = [17, 43]\nclass = Lose"] ;
102 -> 103 ;
104 [label="attendance <= 68615.5\ngini = 0.395\nsamples = 59\nvalue = [16, 43]\nclass = Lose"] ;
103 -> 104 ;
105 [label="min temp <= 46.586\ngini = 0.231\nsamples = 15\nvalue = [2, 13]\nclass = Lose"] ;
104 -> 105 ;
106 [label="attendance <= 59210.5\ngini = 0.5\nsamples = 4\nvalue = [2, 2]\nclass = Win"] ;
105 -> 106 ;
107 [label="gini = 0.0\nsamples = 1\nvalue = [1, 0]\nclass = Win"] ;
106 -> 107 ;
108 [label="min temp <= 27.95\ngini = 0.444\nsamples = 3\nvalue = [1, 2]\nclass = Lose"] ;
106 -> 108 ;
109 [label="gini = 0.0\nsamples = 1\nvalue = [0, 1]\nclass = Lose"] ;
108 -> 109 ;
110 [label="attendance <= 66610.0\ngini = 0.5\nsamples = 2\nvalue = [1, 1]\nclass = Win"] ;
108 -> 110 ;
111 [label="gini = 0.0\nsamples = 1\nvalue = [1, 0]\nclass = Win"] ;
110 -> 111 ;
112 [label="gini = 0.0\nsamples = 1\nvalue = [0, 1]\nclass = Lose"] ;
110 -> 112 ;
113 [label="gini = 0.0\nsamples = 11\nvalue = [0, 11]\nclass = Lose"] ;
105 -> 113 ;
114 [label="attendance <= 79295.5\ngini = 0.434\nsamples = 44\nvalue = [14, 30]\nclass = Lose"] ;
104 -> 114 ;
115 [label="attendance <= 69917.0\ngini = 0.499\nsamples = 21\nvalue = [10, 11]\nclass = Lose"] ;
114 -> 115 ;
116 [label="gini = 0.0\nsamples = 2\nvalue = [2, 0]\nclass = Win"] ;
115 -> 116 ;
117 [label="attendance <= 75128.0\ngini = 0.488\nsamples = 19\nvalue = [8, 11]\nclass = Lose"] ;
115 -> 117 ;
118 [label="min temp <= 51.086\ngini = 0.375\nsamples = 12\nvalue = [3, 9]\nclass = Lose"] ;
117 -> 118 ;
119 [label="min temp <= 49.46\ngini = 0.469\nsamples = 8\nvalue = [3, 5]\nclass = Lose"] ;
118 -> 119 ;
120 [label="gini = 0.0\nsamples = 3\nvalue = [0, 3]\nclass = Lose"] ;
119 -> 120 ;
121 [label="gini = 0.48\nsamples = 5\nvalue = [3, 2]\nclass = Win"] ;
119 -> 121 ;
122 [label="gini = 0.0\nsamples = 4\nvalue = [0, 4]\nclass = Lose"] ;
118 -> 122 ;
123 [label="min temp <= 47.126\ngini = 0.408\nsamples = 7\nvalue = [5, 2]\nclass = Win"] ;
117 -> 123 ;
124 [label="gini = 0.0\nsamples = 2\nvalue = [2, 0]\nclass = Win"] ;
123 -> 124 ;
125 [label="attendance <= 75292.5\ngini = 0.48\nsamples = 5\nvalue = [3, 2]\nclass = Win"] ;
123 -> 125 ;
126 [label="gini = 0.0\nsamples = 1\nvalue = [1, 0]\nclass = Win"] ;
125 -> 126 ;
127 [label="gini = 0.5\nsamples = 4\nvalue = [2, 2]\nclass = Win"] ;
125 -> 127 ;
128 [label="max temp <= 72.53\ngini = 0.287\nsamples = 23\nvalue = [4, 19]\nclass = Lose"] ;
114 -> 128 ;
129 [label="max temp <= 68.99\ngini = 0.188\nsamples = 19\nvalue = [2, 17]\nclass = Lose"] ;
128 -> 129 ;
130 [label="max temp <= 67.46\ngini = 0.375\nsamples = 8\nvalue = [2, 6]\nclass = Lose"] ;
129 -> 130 ;
131 [label="attendance <= 89138.0\ngini = 0.245\nsamples = 7\nvalue = [1, 6]\nclass = Lose"] ;
130 -> 131 ;
132 [label="gini = 0.5\nsamples = 2\nvalue = [1, 1]\nclass = Win"] ;
131 -> 132 ;
133 [label="gini = 0.0\nsamples = 5\nvalue = [0, 5]\nclass = Lose"] ;
131 -> 133 ;
134 [label="gini = 0.0\nsamples = 1\nvalue = [1, 0]\nclass = Win"] ;
130 -> 134 ;
135 [label="gini = 0.0\nsamples = 11\nvalue = [0, 11]\nclass = Lose"] ;
129 -> 135 ;
136 [label="avg wind speed <= 28.016\ngini = 0.5\nsamples = 4\nvalue = [2, 2]\nclass = Win"] ;
128 -> 136 ;
137 [label="gini = 0.0\nsamples = 1\nvalue = [1, 0]\nclass = Win"] ;
136 -> 137 ;
138 [label="attendance <= 89754.5\ngini = 0.444\nsamples = 3\nvalue = [1, 2]\nclass = Lose"] ;
136 -> 138 ;
139 [label="gini = 0.0\nsamples = 1\nvalue = [1, 0]\nclass = Win"] ;
138 -> 139 ;
140 [label="gini = 0.0\nsamples = 2\nvalue = [0, 2]\nclass = Lose"] ;
138 -> 140 ;
141 [label="gini = 0.0\nsamples = 1\nvalue = [1, 0]\nclass = Win"] ;
103 -> 141 ;
142 [label="min temp <= 65.93\ngini = 0.49\nsamples = 7\nvalue = [4, 3]\nclass = Win"] ;
102 -> 142 ;
143 [label="gini = 0.0\nsamples = 3\nvalue = [3, 0]\nclass = Win"] ;
142 -> 143 ;
144 [label="avg wind speed <= 36.016\ngini = 0.375\nsamples = 4\nvalue = [1, 3]\nclass = Lose"] ;
142 -> 144 ;
145 [label="gini = 0.0\nsamples = 3\nvalue = [0, 3]\nclass = Lose"] ;
144 -> 145 ;
146 [label="gini = 0.0\nsamples = 1\nvalue = [1, 0]\nclass = Win"] ;
144 -> 146 ;
}