digraph Tree {
node [shape=box] ;
0 [label="avg wind speed <= 25.5\ngini = 0.477\nsamples = 314\nvalue = [123, 191]\nclass = Lose"] ;
1 [label="avg wind speed <= 1.0\ngini = 0.268\nsamples = 44\nvalue = [7, 37]\nclass = Lose"] ;
0 -> 1 [labeldistance=2.5, labelangle=45, headlabel="True"] ;
2 [label="gini = 0.0\nsamples = 1\nvalue = [1, 0]\nclass = Win"] ;
1 -> 2 ;
3 [label="min temp <= 47.03\ngini = 0.24\nsamples = 43\nvalue = [6, 37]\nclass = Lose"] ;
1 -> 3 ;
4 [label="gini = 0.0\nsamples = 13\nvalue = [0, 13]\nclass = Lose"] ;
3 -> 4 ;
5 [label="max temp <= 68.99\ngini = 0.32\nsamples = 30\nvalue = [6, 24]\nclass = Lose"] ;
3 -> 5 ;
6 [label="avg wind speed <= 9.0\ngini = 0.375\nsamples = 4\nvalue = [3, 1]\nclass = Win"] ;
5 -> 6 ;
7 [label="avg wind speed <= 7.0\ngini = 0.5\nsamples = 2\nvalue = [1, 1]\nclass = Win"] ;
6 -> 7 ;
8 [label="gini = 0.0\nsamples = 1\nvalue = [1, 0]\nclass = Win"] ;
7 -> 8 ;
9 [label="gini = 0.0\nsamples = 1\nvalue = [0, 1]\nclass = Lose"] ;
7 -> 9 ;
10 [label="gini = 0.0\nsamples = 2\nvalue = [2, 0]\nclass = Win"] ;
6 -> 10 ;
11 [label="max temp <= 83.93\ngini = 0.204\nsamples = 26\nvalue = [3, 23]\nclass = Lose"] ;
5 -> 11 ;
12 [label="gini = 0.0\nsamples = 10\nvalue = [0, 10]\nclass = Lose"] ;
11 -> 12 ;
13 [label="avg wind speed <= 12.0\ngini = 0.305\nsamples = 16\nvalue = [3, 13]\nclass = Lose"] ;
11 -> 13 ;
14 [label="gini = 0.0\nsamples = 1\nvalue = [1, 0]\nclass = Win"] ;
13 -> 14 ;
15 [label="max temp <= 85.46\ngini = 0.231\nsamples = 15\nvalue = [2, 13]\nclass = Lose"] ;
13 -> 15 ;
16 [label="avg wind speed <= 24.0\ngini = 0.5\nsamples = 2\nvalue = [1, 1]\nclass = Win"] ;
15 -> 16 ;
17 [label="gini = 0.0\nsamples = 1\nvalue = [0, 1]\nclass = Lose"] ;
16 -> 17 ;
18 [label="gini = 0.0\nsamples = 1\nvalue = [1, 0]\nclass = Win"] ;
16 -> 18 ;
19 [label="avg wind speed <= 22.0\ngini = 0.142\nsamples = 13\nvalue = [1, 12]\nclass = Lose"] ;
15 -> 19 ;
20 [label="gini = 0.0\nsamples = 6\nvalue = [0, 6]\nclass = Lose"] ;
19 -> 20 ;
21 [label="gini = 0.245\nsamples = 7\nvalue = [1, 6]\nclass = Lose"] ;
19 -> 21 ;
22 [label="max temp <= 68.54\ngini = 0.49\nsamples = 270\nvalue = [116, 154]\nclass = Lose"] ;
0 -> 22 [labeldistance=2.5, labelangle=-45, headlabel="False"] ;
23 [label="min temp <= 43.52\ngini = 0.496\nsamples = 68\nvalue = [37, 31]\nclass = Win"] ;
22 -> 23 ;
24 [label="max temp <= 46.49\ngini = 0.486\nsamples = 48\nvalue = [20, 28]\nclass = Lose"] ;
23 -> 24 ;
25 [label="avg wind speed <= 68.5\ngini = 0.245\nsamples = 7\nvalue = [1, 6]\nclass = Lose"] ;
24 -> 25 ;
26 [label="gini = 0.0\nsamples = 6\nvalue = [0, 6]\nclass = Lose"] ;
25 -> 26 ;
27 [label="gini = 0.0\nsamples = 1\nvalue = [1, 0]\nclass = Win"] ;
25 -> 27 ;
28 [label="max temp <= 59.54\ngini = 0.497\nsamples = 41\nvalue = [19, 22]\nclass = Lose"] ;
24 -> 28 ;
29 [label="avg wind speed <= 33.5\ngini = 0.488\nsamples = 19\nvalue = [11, 8]\nclass = Win"] ;
28 -> 29 ;
30 [label="max temp <= 54.05\ngini = 0.397\nsamples = 11\nvalue = [8, 3]\nclass = Win"] ;
29 -> 30 ;
31 [label="min temp <= 32.0\ngini = 0.5\nsamples = 6\nvalue = [3, 3]\nclass = Win"] ;
30 -> 31 ;
32 [label="gini = 0.0\nsamples = 1\nvalue = [1, 0]\nclass = Win"] ;
31 -> 32 ;
33 [label="gini = 0.48\nsamples = 5\nvalue = [2, 3]\nclass = Lose"] ;
31 -> 33 ;
34 [label="gini = 0.0\nsamples = 5\nvalue = [5, 0]\nclass = Win"] ;
30 -> 34 ;
35 [label="max temp <= 58.46\ngini = 0.469\nsamples = 8\nvalue = [3, 5]\nclass = Lose"] ;
29 -> 35 ;
36 [label="avg wind speed <= 45.5\ngini = 0.408\nsamples = 7\nvalue = [2, 5]\nclass = Lose"] ;
35 -> 36 ;
37 [label="gini = 0.0\nsamples = 3\nvalue = [0, 3]\nclass = Lose"] ;
36 -> 37 ;
38 [label="gini = 0.5\nsamples = 4\nvalue = [2, 2]\nclass = Win"] ;
36 -> 38 ;
39 [label="gini = 0.0\nsamples = 1\nvalue = [1, 0]\nclass = Win"] ;
35 -> 39 ;
40 [label="min temp <= 38.48\ngini = 0.463\nsamples = 22\nvalue = [8, 14]\nclass = Lose"] ;
28 -> 40 ;
41 [label="min temp <= 33.98\ngini = 0.219\nsamples = 8\nvalue = [1, 7]\nclass = Lose"] ;
40 -> 41 ;
42 [label="gini = 0.0\nsamples = 4\nvalue = [0, 4]\nclass = Lose"] ;
41 -> 42 ;
43 [label="min temp <= 36.95\ngini = 0.375\nsamples = 4\nvalue = [1, 3]\nclass = Lose"] ;
41 -> 43 ;
44 [label="gini = 0.5\nsamples = 2\nvalue = [1, 1]\nclass = Win"] ;
43 -> 44 ;
45 [label="gini = 0.0\nsamples = 2\nvalue = [0, 2]\nclass = Lose"] ;
43 -> 45 ;
46 [label="avg wind speed <= 30.016\ngini = 0.5\nsamples = 14\nvalue = [7, 7]\nclass = Win"] ;
40 -> 46 ;
47 [label="gini = 0.0\nsamples = 2\nvalue = [0, 2]\nclass = Lose"] ;
46 -> 47 ;
48 [label="max temp <= 61.52\ngini = 0.486\nsamples = 12\nvalue = [7, 5]\nclass = Win"] ;
46 -> 48 ;
49 [label="gini = 0.0\nsamples = 2\nvalue = [2, 0]\nclass = Win"] ;
48 -> 49 ;
50 [label="gini = 0.5\nsamples = 10\nvalue = [5, 5]\nclass = Win"] ;
48 -> 50 ;
51 [label="avg wind speed <= 28.0\ngini = 0.255\nsamples = 20\nvalue = [17, 3]\nclass = Win"] ;
23 -> 51 ;
52 [label="gini = 0.0\nsamples = 1\nvalue = [0, 1]\nclass = Lose"] ;
51 -> 52 ;
53 [label="max temp <= 63.41\ngini = 0.188\nsamples = 19\nvalue = [17, 2]\nclass = Win"] ;
51 -> 53 ;
54 [label="min temp <= 47.48\ngini = 0.408\nsamples = 7\nvalue = [5, 2]\nclass = Win"] ;
53 -> 54 ;
55 [label="min temp <= 45.5\ngini = 0.5\nsamples = 4\nvalue = [2, 2]\nclass = Win"] ;
54 -> 55 ;
56 [label="gini = 0.0\nsamples = 2\nvalue = [2, 0]\nclass = Win"] ;
55 -> 56 ;
57 [label="gini = 0.0\nsamples = 2\nvalue = [0, 2]\nclass = Lose"] ;
55 -> 57 ;
58 [label="gini = 0.0\nsamples = 3\nvalue = [3, 0]\nclass = Win"] ;
54 -> 58 ;
59 [label="gini = 0.0\nsamples = 12\nvalue = [12, 0]\nclass = Win"] ;
53 -> 59 ;
60 [label="min temp <= 48.47\ngini = 0.476\nsamples = 202\nvalue = [79, 123]\nclass = Lose"] ;
22 -> 60 ;
61 [label="max temp <= 71.51\ngini = 0.457\nsamples = 17\nvalue = [11, 6]\nclass = Win"] ;
60 -> 61 ;
62 [label="min temp <= 37.49\ngini = 0.444\nsamples = 6\nvalue = [2, 4]\nclass = Lose"] ;
61 -> 62 ;
63 [label="gini = 0.0\nsamples = 1\nvalue = [1, 0]\nclass = Win"] ;
62 -> 63 ;
64 [label="avg wind speed <= 34.016\ngini = 0.32\nsamples = 5\nvalue = [1, 4]\nclass = Lose"] ;
62 -> 64 ;
65 [label="home <= 0.5\ngini = 0.444\nsamples = 3\nvalue = [1, 2]\nclass = Lose"] ;
64 -> 65 ;
66 [label="gini = 0.0\nsamples = 1\nvalue = [0, 1]\nclass = Lose"] ;
65 -> 66 ;
67 [label="min temp <= 42.98\ngini = 0.5\nsamples = 2\nvalue = [1, 1]\nclass = Win"] ;
65 -> 67 ;
68 [label="gini = 0.0\nsamples = 1\nvalue = [1, 0]\nclass = Win"] ;
67 -> 68 ;
69 [label="gini = 0.0\nsamples = 1\nvalue = [0, 1]\nclass = Lose"] ;
67 -> 69 ;
70 [label="gini = 0.0\nsamples = 2\nvalue = [0, 2]\nclass = Lose"] ;
64 -> 70 ;
71 [label="max temp <= 78.98\ngini = 0.298\nsamples = 11\nvalue = [9, 2]\nclass = Win"] ;
61 -> 71 ;
72 [label="min temp <= 38.93\ngini = 0.198\nsamples = 9\nvalue = [8, 1]\nclass = Win"] ;
71 -> 72 ;
73 [label="max temp <= 72.95\ngini = 0.444\nsamples = 3\nvalue = [2, 1]\nclass = Win"] ;
72 -> 73 ;
74 [label="gini = 0.0\nsamples = 1\nvalue = [1, 0]\nclass = Win"] ;
73 -> 74 ;
75 [label="avg wind speed <= 36.516\ngini = 0.5\nsamples = 2\nvalue = [1, 1]\nclass = Win"] ;
73 -> 75 ;
76 [label="gini = 0.0\nsamples = 1\nvalue = [0, 1]\nclass = Lose"] ;
75 -> 76 ;
77 [label="gini = 0.0\nsamples = 1\nvalue = [1, 0]\nclass = Win"] ;
75 -> 77 ;
78 [label="gini = 0.0\nsamples = 6\nvalue = [6, 0]\nclass = Win"] ;
72 -> 78 ;
79 [label="max temp <= 81.95\ngini = 0.5\nsamples = 2\nvalue = [1, 1]\nclass = Win"] ;
71 -> 79 ;
80 [label="gini = 0.0\nsamples = 1\nvalue = [0, 1]\nclass = Lose"] ;
79 -> 80 ;
81 [label="gini = 0.0\nsamples = 1\nvalue = [1, 0]\nclass = Win"] ;
79 -> 81 ;
82 [label="min temp <= 63.5\ngini = 0.465\nsamples = 185\nvalue = [68, 117]\nclass = Lose"] ;
60 -> 82 ;
83 [label="min temp <= 60.53\ngini = 0.443\nsamples = 157\nvalue = [52, 105]\nclass = Lose"] ;
82 -> 83 ;
84 [label="avg wind speed <= 31.016\ngini = 0.453\nsamples = 150\nvalue = [52, 98]\nclass = Lose"] ;
83 -> 84 ;
85 [label="max temp <= 71.99\ngini = 0.463\nsamples = 140\nvalue = [51, 89]\nclass = Lose"] ;
84 -> 85 ;
86 [label="max temp <= 70.52\ngini = 0.219\nsamples = 8\nvalue = [1, 7]\nclass = Lose"] ;
85 -> 86 ;
87 [label="gini = 0.444\nsamples = 3\nvalue = [1, 2]\nclass = Lose"] ;
86 -> 87 ;
88 [label="gini = 0.0\nsamples = 5\nvalue = [0, 5]\nclass = Lose"] ;
86 -> 88 ;
89 [label="min temp <= 50.096\ngini = 0.471\nsamples = 132\nvalue = [50, 82]\nclass = Lose"] ;
85 -> 89 ;
90 [label="gini = 0.375\nsamples = 4\nvalue = [3, 1]\nclass = Win"] ;
89 -> 90 ;
91 [label="gini = 0.465\nsamples = 128\nvalue = [47, 81]\nclass = Lose"] ;
89 -> 91 ;
92 [label="max temp <= 76.01\ngini = 0.18\nsamples = 10\nvalue = [1, 9]\nclass = Lose"] ;
84 -> 92 ;
93 [label="gini = 0.0\nsamples = 5\nvalue = [0, 5]\nclass = Lose"] ;
92 -> 93 ;
94 [label="min temp <= 52.52\ngini = 0.32\nsamples = 5\nvalue = [1, 4]\nclass = Lose"] ;
92 -> 94 ;
95 [label="gini = 0.0\nsamples = 2\nvalue = [0, 2]\nclass = Lose"] ;
94 -> 95 ;
96 [label="gini = 0.444\nsamples = 3\nvalue = [1, 2]\nclass = Lose"] ;
94 -> 96 ;
97 [label="gini = 0.0\nsamples = 7\nvalue = [0, 7]\nclass = Lose"] ;
83 -> 97 ;
98 [label="avg wind speed <= 49.5\ngini = 0.49\nsamples = 28\nvalue = [16, 12]\nclass = Win"] ;
82 -> 98 ;
99 [label="max temp <= 85.46\ngini = 0.473\nsamples = 26\nvalue = [16, 10]\nclass = Win"] ;
98 -> 99 ;
100 [label="max temp <= 72.5\ngini = 0.5\nsamples = 16\nvalue = [8, 8]\nclass = Win"] ;
99 -> 100 ;
101 [label="gini = 0.0\nsamples = 3\nvalue = [3, 0]\nclass = Win"] ;
100 -> 101 ;
102 [label="min temp <= 71.51\ngini = 0.473\nsamples = 13\nvalue = [5, 8]\nclass = Lose"] ;
100 -> 102 ;
103 [label="gini = 0.444\nsamples = 12\nvalue = [4, 8]\nclass = Lose"] ;
102 -> 103 ;
104 [label="gini = 0.0\nsamples = 1\nvalue = [1, 0]\nclass = Win"] ;
102 -> 104 ;
105 [label="max temp <= 93.47\ngini = 0.32\nsamples = 10\nvalue = [8, 2]\nclass = Win"] ;
99 -> 105 ;
106 [label="gini = 0.0\nsamples = 5\nvalue = [5, 0]\nclass = Win"] ;
105 -> 106 ;
107 [label="max temp <= 99.5\ngini = 0.48\nsamples = 5\nvalue = [3, 2]\nclass = Win"] ;
105 -> 107 ;
108 [label="gini = 0.444\nsamples = 3\nvalue = [1, 2]\nclass = Lose"] ;
107 -> 108 ;
109 [label="gini = 0.0\nsamples = 2\nvalue = [2, 0]\nclass = Win"] ;
107 -> 109 ;
110 [label="gini = 0.0\nsamples = 2\nvalue = [0, 2]\nclass = Lose"] ;
98 -> 110 ;
}