digraph Tree {
node [shape=box] ;
0 [label="attendance <= 53023.0\ngini = 0.497\nsamples = 56\nvalue = [26, 30]\nclass = Lose"] ;
1 [label="attendance <= 30811.5\ngini = 0.5\nsamples = 45\nvalue = [23, 22]\nclass = Win"] ;
0 -> 1 [labeldistance=2.5, labelangle=45, headlabel="True"] ;
2 [label="attendance <= 7653.5\ngini = 0.466\nsamples = 27\nvalue = [10, 17]\nclass = Lose"] ;
1 -> 2 ;
3 [label="attendance <= 3216.5\ngini = 0.375\nsamples = 4\nvalue = [3, 1]\nclass = Win"] ;
2 -> 3 ;
4 [label="max temp <= 83.304\ngini = 0.5\nsamples = 2\nvalue = [1, 1]\nclass = Win"] ;
3 -> 4 ;
5 [label="gini = 0.0\nsamples = 1\nvalue = [1, 0]\nclass = Win"] ;
4 -> 5 ;
6 [label="gini = 0.0\nsamples = 1\nvalue = [0, 1]\nclass = Lose"] ;
4 -> 6 ;
7 [label="gini = 0.0\nsamples = 2\nvalue = [2, 0]\nclass = Win"] ;
3 -> 7 ;
8 [label="max temp <= 86.54\ngini = 0.423\nsamples = 23\nvalue = [7, 16]\nclass = Lose"] ;
2 -> 8 ;
9 [label="home <= 0.5\ngini = 0.397\nsamples = 22\nvalue = [6, 16]\nclass = Lose"] ;
8 -> 9 ;
10 [label="gini = 0.0\nsamples = 1\nvalue = [1, 0]\nclass = Win"] ;
9 -> 10 ;
11 [label="max temp <= 74.48\ngini = 0.363\nsamples = 21\nvalue = [5, 16]\nclass = Lose"] ;
9 -> 11 ;
12 [label="gini = 0.444\nsamples = 3\nvalue = [2, 1]\nclass = Win"] ;
11 -> 12 ;
13 [label="gini = 0.278\nsamples = 18\nvalue = [3, 15]\nclass = Lose"] ;
11 -> 13 ;
14 [label="gini = 0.0\nsamples = 1\nvalue = [1, 0]\nclass = Win"] ;
8 -> 14 ;
15 [label="attendance <= 40890.5\ngini = 0.401\nsamples = 18\nvalue = [13, 5]\nclass = Win"] ;
1 -> 15 ;
16 [label="attendance <= 32672.0\ngini = 0.18\nsamples = 10\nvalue = [9, 1]\nclass = Win"] ;
15 -> 16 ;
17 [label="attendance <= 32368.5\ngini = 0.32\nsamples = 5\nvalue = [4, 1]\nclass = Win"] ;
16 -> 17 ;
18 [label="gini = 0.0\nsamples = 4\nvalue = [4, 0]\nclass = Win"] ;
17 -> 18 ;
19 [label="gini = 0.0\nsamples = 1\nvalue = [0, 1]\nclass = Lose"] ;
17 -> 19 ;
20 [label="gini = 0.0\nsamples = 5\nvalue = [5, 0]\nclass = Win"] ;
16 -> 20 ;
21 [label="attendance <= 50190.0\ngini = 0.5\nsamples = 8\nvalue = [4, 4]\nclass = Win"] ;
15 -> 21 ;
22 [label="max temp <= 73.314\ngini = 0.444\nsamples = 6\nvalue = [2, 4]\nclass = Lose"] ;
21 -> 22 ;
23 [label="max temp <= 62.51\ngini = 0.444\nsamples = 3\nvalue = [2, 1]\nclass = Win"] ;
22 -> 23 ;
24 [label="gini = 0.0\nsamples = 1\nvalue = [0, 1]\nclass = Lose"] ;
23 -> 24 ;
25 [label="gini = 0.0\nsamples = 2\nvalue = [2, 0]\nclass = Win"] ;
23 -> 25 ;
26 [label="gini = 0.0\nsamples = 3\nvalue = [0, 3]\nclass = Lose"] ;
22 -> 26 ;
27 [label="gini = 0.0\nsamples = 2\nvalue = [2, 0]\nclass = Win"] ;
21 -> 27 ;
28 [label="attendance <= 56320.5\ngini = 0.397\nsamples = 11\nvalue = [3, 8]\nclass = Lose"] ;
0 -> 28 [labeldistance=2.5, labelangle=-45, headlabel="False"] ;
29 [label="gini = 0.0\nsamples = 5\nvalue = [0, 5]\nclass = Lose"] ;
28 -> 29 ;
30 [label="min temp <= 54.531\ngini = 0.5\nsamples = 6\nvalue = [3, 3]\nclass = Win"] ;
28 -> 30 ;
31 [label="gini = 0.0\nsamples = 2\nvalue = [2, 0]\nclass = Win"] ;
30 -> 31 ;
32 [label="max temp <= 86.45\ngini = 0.375\nsamples = 4\nvalue = [1, 3]\nclass = Lose"] ;
30 -> 32 ;
33 [label="gini = 0.0\nsamples = 3\nvalue = [0, 3]\nclass = Lose"] ;
32 -> 33 ;
34 [label="gini = 0.0\nsamples = 1\nvalue = [1, 0]\nclass = Win"] ;
32 -> 34 ;
}