digraph Tree {
node [shape=box] ;
0 [label="score <= 22.5\ngini = 0.477\nsamples = 314\nvalue = [123, 191]\nclass = Lose"] ;
1 [label="score <= 15.0\ngini = 0.324\nsamples = 113\nvalue = [90, 23]\nclass = Win"] ;
0 -> 1 [labeldistance=2.5, labelangle=45, headlabel="True"] ;
2 [label="attendance <= 108234.5\ngini = 0.14\nsamples = 53\nvalue = [49, 4]\nclass = Win"] ;
1 -> 2 ;
3 [label="min temp <= 29.93\ngini = 0.109\nsamples = 52\nvalue = [49, 3]\nclass = Win"] ;
2 -> 3 ;
4 [label="max temp <= 59.54\ngini = 0.444\nsamples = 3\nvalue = [2, 1]\nclass = Win"] ;
3 -> 4 ;
5 [label="gini = 0.0\nsamples = 2\nvalue = [2, 0]\nclass = Win"] ;
4 -> 5 ;
6 [label="gini = 0.0\nsamples = 1\nvalue = [0, 1]\nclass = Lose"] ;
4 -> 6 ;
7 [label="attendance <= 34296.0\ngini = 0.078\nsamples = 49\nvalue = [47, 2]\nclass = Win"] ;
3 -> 7 ;
8 [label="gini = 0.0\nsamples = 29\nvalue = [29, 0]\nclass = Win"] ;
7 -> 8 ;
9 [label="attendance <= 41310.0\ngini = 0.18\nsamples = 20\nvalue = [18, 2]\nclass = Win"] ;
7 -> 9 ;
10 [label="max temp <= 78.02\ngini = 0.444\nsamples = 3\nvalue = [1, 2]\nclass = Lose"] ;
9 -> 10 ;
11 [label="gini = 0.0\nsamples = 2\nvalue = [0, 2]\nclass = Lose"] ;
10 -> 11 ;
12 [label="gini = 0.0\nsamples = 1\nvalue = [1, 0]\nclass = Win"] ;
10 -> 12 ;
13 [label="gini = 0.0\nsamples = 17\nvalue = [17, 0]\nclass = Win"] ;
9 -> 13 ;
14 [label="gini = 0.0\nsamples = 1\nvalue = [0, 1]\nclass = Lose"] ;
2 -> 14 ;
15 [label="avg wind speed <= 28.0\ngini = 0.433\nsamples = 60\nvalue = [41, 19]\nclass = Win"] ;
1 -> 15 ;
16 [label="score <= 19.5\ngini = 0.444\nsamples = 9\nvalue = [3, 6]\nclass = Lose"] ;
15 -> 16 ;
17 [label="gini = 0.0\nsamples = 6\nvalue = [0, 6]\nclass = Lose"] ;
16 -> 17 ;
18 [label="gini = 0.0\nsamples = 3\nvalue = [3, 0]\nclass = Win"] ;
16 -> 18 ;
19 [label="attendance <= 89060.5\ngini = 0.38\nsamples = 51\nvalue = [38, 13]\nclass = Win"] ;
15 -> 19 ;
20 [label="min temp <= 48.47\ngini = 0.348\nsamples = 49\nvalue = [38, 11]\nclass = Win"] ;
19 -> 20 ;
21 [label="gini = 0.0\nsamples = 14\nvalue = [14, 0]\nclass = Win"] ;
20 -> 21 ;
22 [label="avg wind speed <= 32.016\ngini = 0.431\nsamples = 35\nvalue = [24, 11]\nclass = Win"] ;
20 -> 22 ;
23 [label="attendance <= 57055.0\ngini = 0.383\nsamples = 31\nvalue = [23, 8]\nclass = Win"] ;
22 -> 23 ;
24 [label="attendance <= 7668.5\ngini = 0.33\nsamples = 24\nvalue = [19, 5]\nclass = Win"] ;
23 -> 24 ;
25 [label="max temp <= 73.97\ngini = 0.444\nsamples = 12\nvalue = [8, 4]\nclass = Win"] ;
24 -> 25 ;
26 [label="score <= 16.5\ngini = 0.375\nsamples = 8\nvalue = [6, 2]\nclass = Win"] ;
25 -> 26 ;
27 [label="gini = 0.5\nsamples = 2\nvalue = [1, 1]\nclass = Win"] ;
26 -> 27 ;
28 [label="score <= 19.0\ngini = 0.278\nsamples = 6\nvalue = [5, 1]\nclass = Win"] ;
26 -> 28 ;
29 [label="gini = 0.0\nsamples = 1\nvalue = [1, 0]\nclass = Win"] ;
28 -> 29 ;
30 [label="max temp <= 71.0\ngini = 0.32\nsamples = 5\nvalue = [4, 1]\nclass = Win"] ;
28 -> 30 ;
31 [label="gini = 0.0\nsamples = 1\nvalue = [1, 0]\nclass = Win"] ;
30 -> 31 ;
32 [label="gini = 0.375\nsamples = 4\nvalue = [3, 1]\nclass = Win"] ;
30 -> 32 ;
33 [label="min temp <= 53.51\ngini = 0.5\nsamples = 4\nvalue = [2, 2]\nclass = Win"] ;
25 -> 33 ;
34 [label="gini = 0.0\nsamples = 1\nvalue = [1, 0]\nclass = Win"] ;
33 -> 34 ;
35 [label="min temp <= 68.45\ngini = 0.444\nsamples = 3\nvalue = [1, 2]\nclass = Lose"] ;
33 -> 35 ;
36 [label="gini = 0.0\nsamples = 2\nvalue = [0, 2]\nclass = Lose"] ;
35 -> 36 ;
37 [label="gini = 0.0\nsamples = 1\nvalue = [1, 0]\nclass = Win"] ;
35 -> 37 ;
38 [label="attendance <= 45122.5\ngini = 0.153\nsamples = 12\nvalue = [11, 1]\nclass = Win"] ;
24 -> 38 ;
39 [label="gini = 0.0\nsamples = 8\nvalue = [8, 0]\nclass = Win"] ;
38 -> 39 ;
40 [label="attendance <= 51361.0\ngini = 0.375\nsamples = 4\nvalue = [3, 1]\nclass = Win"] ;
38 -> 40 ;
41 [label="gini = 0.0\nsamples = 1\nvalue = [0, 1]\nclass = Lose"] ;
40 -> 41 ;
42 [label="gini = 0.0\nsamples = 3\nvalue = [3, 0]\nclass = Win"] ;
40 -> 42 ;
43 [label="attendance <= 58916.5\ngini = 0.49\nsamples = 7\nvalue = [4, 3]\nclass = Win"] ;
23 -> 43 ;
44 [label="gini = 0.0\nsamples = 1\nvalue = [0, 1]\nclass = Lose"] ;
43 -> 44 ;
45 [label="max temp <= 75.05\ngini = 0.444\nsamples = 6\nvalue = [4, 2]\nclass = Win"] ;
43 -> 45 ;
46 [label="min temp <= 57.566\ngini = 0.444\nsamples = 3\nvalue = [1, 2]\nclass = Lose"] ;
45 -> 46 ;
47 [label="gini = 0.0\nsamples = 2\nvalue = [0, 2]\nclass = Lose"] ;
46 -> 47 ;
48 [label="gini = 0.0\nsamples = 1\nvalue = [1, 0]\nclass = Win"] ;
46 -> 48 ;
49 [label="gini = 0.0\nsamples = 3\nvalue = [3, 0]\nclass = Win"] ;
45 -> 49 ;
50 [label="score <= 19.5\ngini = 0.375\nsamples = 4\nvalue = [1, 3]\nclass = Lose"] ;
22 -> 50 ;
51 [label="gini = 0.0\nsamples = 3\nvalue = [0, 3]\nclass = Lose"] ;
50 -> 51 ;
52 [label="gini = 0.0\nsamples = 1\nvalue = [1, 0]\nclass = Win"] ;
50 -> 52 ;
53 [label="gini = 0.0\nsamples = 2\nvalue = [0, 2]\nclass = Lose"] ;
19 -> 53 ;
54 [label="score <= 34.5\ngini = 0.274\nsamples = 201\nvalue = [33, 168]\nclass = Lose"] ;
0 -> 54 [labeldistance=2.5, labelangle=-45, headlabel="False"] ;
55 [label="min temp <= 65.93\ngini = 0.431\nsamples = 89\nvalue = [28, 61]\nclass = Lose"] ;
54 -> 55 ;
56 [label="attendance <= 2188.0\ngini = 0.407\nsamples = 81\nvalue = [23, 58]\nclass = Lose"] ;
55 -> 56 ;
57 [label="min temp <= 50.096\ngini = 0.264\nsamples = 32\nvalue = [5, 27]\nclass = Lose"] ;
56 -> 57 ;
58 [label="max temp <= 63.5\ngini = 0.444\nsamples = 12\nvalue = [4, 8]\nclass = Lose"] ;
57 -> 58 ;
59 [label="gini = 0.0\nsamples = 5\nvalue = [0, 5]\nclass = Lose"] ;
58 -> 59 ;
60 [label="score <= 25.5\ngini = 0.49\nsamples = 7\nvalue = [4, 3]\nclass = Win"] ;
58 -> 60 ;
61 [label="gini = 0.0\nsamples = 2\nvalue = [2, 0]\nclass = Win"] ;
60 -> 61 ;
62 [label="min temp <= 42.53\ngini = 0.48\nsamples = 5\nvalue = [2, 3]\nclass = Lose"] ;
60 -> 62 ;
63 [label="gini = 0.0\nsamples = 2\nvalue = [0, 2]\nclass = Lose"] ;
62 -> 63 ;
64 [label="score <= 27.5\ngini = 0.444\nsamples = 3\nvalue = [2, 1]\nclass = Win"] ;
62 -> 64 ;
65 [label="gini = 0.0\nsamples = 1\nvalue = [0, 1]\nclass = Lose"] ;
64 -> 65 ;
66 [label="gini = 0.0\nsamples = 2\nvalue = [2, 0]\nclass = Win"] ;
64 -> 66 ;
67 [label="score <= 28.5\ngini = 0.095\nsamples = 20\nvalue = [1, 19]\nclass = Lose"] ;
57 -> 67 ;
68 [label="gini = 0.0\nsamples = 11\nvalue = [0, 11]\nclass = Lose"] ;
67 -> 68 ;
69 [label="score <= 29.5\ngini = 0.198\nsamples = 9\nvalue = [1, 8]\nclass = Lose"] ;
67 -> 69 ;
70 [label="gini = 0.0\nsamples = 1\nvalue = [1, 0]\nclass = Win"] ;
69 -> 70 ;
71 [label="gini = 0.0\nsamples = 8\nvalue = [0, 8]\nclass = Lose"] ;
69 -> 71 ;
72 [label="attendance <= 15017.5\ngini = 0.465\nsamples = 49\nvalue = [18, 31]\nclass = Lose"] ;
56 -> 72 ;
73 [label="score <= 27.5\ngini = 0.32\nsamples = 5\nvalue = [4, 1]\nclass = Win"] ;
72 -> 73 ;
74 [label="attendance <= 7712.0\ngini = 0.5\nsamples = 2\nvalue = [1, 1]\nclass = Win"] ;
73 -> 74 ;
75 [label="gini = 0.0\nsamples = 1\nvalue = [1, 0]\nclass = Win"] ;
74 -> 75 ;
76 [label="gini = 0.0\nsamples = 1\nvalue = [0, 1]\nclass = Lose"] ;
74 -> 76 ;
77 [label="gini = 0.0\nsamples = 3\nvalue = [3, 0]\nclass = Win"] ;
73 -> 77 ;
78 [label="score <= 23.5\ngini = 0.434\nsamples = 44\nvalue = [14, 30]\nclass = Lose"] ;
72 -> 78 ;
79 [label="gini = 0.0\nsamples = 2\nvalue = [2, 0]\nclass = Win"] ;
78 -> 79 ;
80 [label="max temp <= 72.53\ngini = 0.408\nsamples = 42\nvalue = [12, 30]\nclass = Lose"] ;
78 -> 80 ;
81 [label="score <= 28.5\ngini = 0.302\nsamples = 27\nvalue = [5, 22]\nclass = Lose"] ;
80 -> 81 ;
82 [label="score <= 27.5\ngini = 0.459\nsamples = 14\nvalue = [5, 9]\nclass = Lose"] ;
81 -> 82 ;
83 [label="avg wind speed <= 20.016\ngini = 0.298\nsamples = 11\nvalue = [2, 9]\nclass = Lose"] ;
82 -> 83 ;
84 [label="gini = 0.0\nsamples = 1\nvalue = [1, 0]\nclass = Win"] ;
83 -> 84 ;
85 [label="attendance <= 28778.0\ngini = 0.18\nsamples = 10\nvalue = [1, 9]\nclass = Lose"] ;
83 -> 85 ;
86 [label="min temp <= 46.136\ngini = 0.444\nsamples = 3\nvalue = [1, 2]\nclass = Lose"] ;
85 -> 86 ;
87 [label="gini = 0.0\nsamples = 2\nvalue = [0, 2]\nclass = Lose"] ;
86 -> 87 ;
88 [label="gini = 0.0\nsamples = 1\nvalue = [1, 0]\nclass = Win"] ;
86 -> 88 ;
89 [label="gini = 0.0\nsamples = 7\nvalue = [0, 7]\nclass = Lose"] ;
85 -> 89 ;
90 [label="gini = 0.0\nsamples = 3\nvalue = [3, 0]\nclass = Win"] ;
82 -> 90 ;
91 [label="gini = 0.0\nsamples = 13\nvalue = [0, 13]\nclass = Lose"] ;
81 -> 91 ;
92 [label="min temp <= 58.01\ngini = 0.498\nsamples = 15\nvalue = [7, 8]\nclass = Lose"] ;
80 -> 92 ;
93 [label="avg wind speed <= 18.5\ngini = 0.463\nsamples = 11\nvalue = [7, 4]\nclass = Win"] ;
92 -> 93 ;
94 [label="gini = 0.0\nsamples = 2\nvalue = [0, 2]\nclass = Lose"] ;
93 -> 94 ;
95 [label="max temp <= 83.48\ngini = 0.346\nsamples = 9\nvalue = [7, 2]\nclass = Win"] ;
93 -> 95 ;
96 [label="score <= 33.5\ngini = 0.219\nsamples = 8\nvalue = [7, 1]\nclass = Win"] ;
95 -> 96 ;
97 [label="gini = 0.0\nsamples = 7\nvalue = [7, 0]\nclass = Win"] ;
96 -> 97 ;
98 [label="gini = 0.0\nsamples = 1\nvalue = [0, 1]\nclass = Lose"] ;
96 -> 98 ;
99 [label="gini = 0.0\nsamples = 1\nvalue = [0, 1]\nclass = Lose"] ;
95 -> 99 ;
100 [label="gini = 0.0\nsamples = 4\nvalue = [0, 4]\nclass = Lose"] ;
92 -> 100 ;
101 [label="max temp <= 87.53\ngini = 0.469\nsamples = 8\nvalue = [5, 3]\nclass = Win"] ;
55 -> 101 ;
102 [label="min temp <= 70.52\ngini = 0.48\nsamples = 5\nvalue = [2, 3]\nclass = Lose"] ;
101 -> 102 ;
103 [label="avg wind speed <= 27.516\ngini = 0.444\nsamples = 3\nvalue = [2, 1]\nclass = Win"] ;
102 -> 103 ;
104 [label="gini = 0.0\nsamples = 1\nvalue = [0, 1]\nclass = Lose"] ;
103 -> 104 ;
105 [label="gini = 0.0\nsamples = 2\nvalue = [2, 0]\nclass = Win"] ;
103 -> 105 ;
106 [label="gini = 0.0\nsamples = 2\nvalue = [0, 2]\nclass = Lose"] ;
102 -> 106 ;
107 [label="gini = 0.0\nsamples = 3\nvalue = [3, 0]\nclass = Win"] ;
101 -> 107 ;
108 [label="max temp <= 47.48\ngini = 0.085\nsamples = 112\nvalue = [5, 107]\nclass = Lose"] ;
54 -> 108 ;
109 [label="max temp <= 46.49\ngini = 0.32\nsamples = 5\nvalue = [1, 4]\nclass = Lose"] ;
108 -> 109 ;
110 [label="gini = 0.0\nsamples = 4\nvalue = [0, 4]\nclass = Lose"] ;
109 -> 110 ;
111 [label="gini = 0.0\nsamples = 1\nvalue = [1, 0]\nclass = Win"] ;
109 -> 111 ;
112 [label="score <= 35.5\ngini = 0.072\nsamples = 107\nvalue = [4, 103]\nclass = Lose"] ;
108 -> 112 ;
113 [label="attendance <= 43463.0\ngini = 0.32\nsamples = 5\nvalue = [1, 4]\nclass = Lose"] ;
112 -> 113 ;
114 [label="gini = 0.0\nsamples = 2\nvalue = [0, 2]\nclass = Lose"] ;
113 -> 114 ;
115 [label="attendance <= 59150.0\ngini = 0.444\nsamples = 3\nvalue = [1, 2]\nclass = Lose"] ;
113 -> 115 ;
116 [label="gini = 0.0\nsamples = 1\nvalue = [1, 0]\nclass = Win"] ;
115 -> 116 ;
117 [label="gini = 0.0\nsamples = 2\nvalue = [0, 2]\nclass = Lose"] ;
115 -> 117 ;
118 [label="max temp <= 72.53\ngini = 0.057\nsamples = 102\nvalue = [3, 99]\nclass = Lose"] ;
112 -> 118 ;
119 [label="attendance <= 56005.5\ngini = 0.091\nsamples = 63\nvalue = [3, 60]\nclass = Lose"] ;
118 -> 119 ;
120 [label="attendance <= 54268.0\ngini = 0.13\nsamples = 43\nvalue = [3, 40]\nclass = Lose"] ;
119 -> 120 ;
121 [label="score <= 47.5\ngini = 0.091\nsamples = 42\nvalue = [2, 40]\nclass = Lose"] ;
120 -> 121 ;
122 [label="gini = 0.0\nsamples = 22\nvalue = [0, 22]\nclass = Lose"] ;
121 -> 122 ;
123 [label="score <= 55.5\ngini = 0.18\nsamples = 20\nvalue = [2, 18]\nclass = Lose"] ;
121 -> 123 ;
124 [label="score <= 53.5\ngini = 0.48\nsamples = 5\nvalue = [2, 3]\nclass = Lose"] ;
123 -> 124 ;
125 [label="avg wind speed <= 26.516\ngini = 0.375\nsamples = 4\nvalue = [1, 3]\nclass = Lose"] ;
124 -> 125 ;
126 [label="gini = 0.0\nsamples = 1\nvalue = [1, 0]\nclass = Win"] ;
125 -> 126 ;
127 [label="gini = 0.0\nsamples = 3\nvalue = [0, 3]\nclass = Lose"] ;
125 -> 127 ;
128 [label="gini = 0.0\nsamples = 1\nvalue = [1, 0]\nclass = Win"] ;
124 -> 128 ;
129 [label="gini = 0.0\nsamples = 15\nvalue = [0, 15]\nclass = Lose"] ;
123 -> 129 ;
130 [label="gini = 0.0\nsamples = 1\nvalue = [1, 0]\nclass = Win"] ;
120 -> 130 ;
131 [label="gini = 0.0\nsamples = 20\nvalue = [0, 20]\nclass = Lose"] ;
119 -> 131 ;
132 [label="gini = 0.0\nsamples = 39\nvalue = [0, 39]\nclass = Lose"] ;
118 -> 132 ;
}