digraph Tree {
node [shape=box] ;
0 [label="max temp <= 52.07\ngini = 0.497\nsamples = 56\nvalue = [26, 30]\nclass = Lose"] ;
1 [label="gini = 0.0\nsamples = 2\nvalue = [0, 2]\nclass = Lose"] ;
0 -> 1 [labeldistance=2.5, labelangle=45, headlabel="True"] ;
2 [label="max temp <= 74.48\ngini = 0.499\nsamples = 54\nvalue = [26, 28]\nclass = Lose"] ;
0 -> 2 [labeldistance=2.5, labelangle=-45, headlabel="False"] ;
3 [label="max temp <= 61.52\ngini = 0.278\nsamples = 6\nvalue = [5, 1]\nclass = Win"] ;
2 -> 3 ;
4 [label="max temp <= 56.03\ngini = 0.5\nsamples = 2\nvalue = [1, 1]\nclass = Win"] ;
3 -> 4 ;
5 [label="gini = 0.0\nsamples = 1\nvalue = [1, 0]\nclass = Win"] ;
4 -> 5 ;
6 [label="gini = 0.0\nsamples = 1\nvalue = [0, 1]\nclass = Lose"] ;
4 -> 6 ;
7 [label="gini = 0.0\nsamples = 4\nvalue = [4, 0]\nclass = Win"] ;
3 -> 7 ;
8 [label="max temp <= 94.64\ngini = 0.492\nsamples = 48\nvalue = [21, 27]\nclass = Lose"] ;
2 -> 8 ;
9 [label="max temp <= 86.0\ngini = 0.496\nsamples = 46\nvalue = [21, 25]\nclass = Lose"] ;
8 -> 9 ;
10 [label="max temp <= 84.47\ngini = 0.485\nsamples = 41\nvalue = [17, 24]\nclass = Lose"] ;
9 -> 10 ;
11 [label="min temp <= 59.45\ngini = 0.494\nsamples = 38\nvalue = [17, 21]\nclass = Lose"] ;
10 -> 11 ;
12 [label="home <= 0.5\ngini = 0.486\nsamples = 36\nvalue = [15, 21]\nclass = Lose"] ;
11 -> 12 ;
13 [label="gini = 0.0\nsamples = 1\nvalue = [1, 0]\nclass = Win"] ;
12 -> 13 ;
14 [label="max temp <= 76.734\ngini = 0.48\nsamples = 35\nvalue = [14, 21]\nclass = Lose"] ;
12 -> 14 ;
15 [label="gini = 0.0\nsamples = 1\nvalue = [0, 1]\nclass = Lose"] ;
14 -> 15 ;
16 [label="min temp <= 54.531\ngini = 0.484\nsamples = 34\nvalue = [14, 20]\nclass = Lose"] ;
14 -> 16 ;
17 [label="gini = 0.0\nsamples = 1\nvalue = [1, 0]\nclass = Win"] ;
16 -> 17 ;
18 [label="min temp <= 56.961\ngini = 0.478\nsamples = 33\nvalue = [13, 20]\nclass = Lose"] ;
16 -> 18 ;
19 [label="gini = 0.482\nsamples = 32\nvalue = [13, 19]\nclass = Lose"] ;
18 -> 19 ;
20 [label="gini = 0.0\nsamples = 1\nvalue = [0, 1]\nclass = Lose"] ;
18 -> 20 ;
21 [label="gini = 0.0\nsamples = 2\nvalue = [2, 0]\nclass = Win"] ;
11 -> 21 ;
22 [label="gini = 0.0\nsamples = 3\nvalue = [0, 3]\nclass = Lose"] ;
10 -> 22 ;
23 [label="max temp <= 88.61\ngini = 0.32\nsamples = 5\nvalue = [4, 1]\nclass = Win"] ;
9 -> 23 ;
24 [label="gini = 0.0\nsamples = 3\nvalue = [3, 0]\nclass = Win"] ;
23 -> 24 ;
25 [label="max temp <= 91.04\ngini = 0.5\nsamples = 2\nvalue = [1, 1]\nclass = Win"] ;
23 -> 25 ;
26 [label="gini = 0.0\nsamples = 1\nvalue = [0, 1]\nclass = Lose"] ;
25 -> 26 ;
27 [label="gini = 0.0\nsamples = 1\nvalue = [1, 0]\nclass = Win"] ;
25 -> 27 ;
28 [label="gini = 0.0\nsamples = 2\nvalue = [0, 2]\nclass = Lose"] ;
8 -> 28 ;
}