digraph Tree {
node [shape=box] ;
0 [label="avg wind speed <= 39.5\ngini = 0.473\nsamples = 629\nvalue = [241, 388]\nclass = Lose"] ;
1 [label="avg wind speed <= 30.5\ngini = 0.464\nsamples = 589\nvalue = [216, 373]\nclass = Lose"] ;
0 -> 1 [labeldistance=2.5, labelangle=45, headlabel="True"] ;
2 [label="avg wind speed <= 25.5\ngini = 0.471\nsamples = 555\nvalue = [211, 344]\nclass = Lose"] ;
1 -> 2 ;
3 [label="min temp <= 54.5\ngini = 0.372\nsamples = 93\nvalue = [23, 70]\nclass = Lose"] ;
2 -> 3 ;
4 [label="avg wind speed <= 1.0\ngini = 0.449\nsamples = 53\nvalue = [18, 35]\nclass = Lose"] ;
3 -> 4 ;
5 [label="gini = 0.0\nsamples = 1\nvalue = [1, 0]\nclass = Win"] ;
4 -> 5 ;
6 [label="min temp <= 12.47\ngini = 0.44\nsamples = 52\nvalue = [17, 35]\nclass = Lose"] ;
4 -> 6 ;
7 [label="gini = 0.0\nsamples = 1\nvalue = [1, 0]\nclass = Win"] ;
6 -> 7 ;
8 [label="gini = 0.431\nsamples = 51\nvalue = [16, 35]\nclass = Lose"] ;
6 -> 8 ;
9 [label="min temp <= 63.5\ngini = 0.219\nsamples = 40\nvalue = [5, 35]\nclass = Lose"] ;
3 -> 9 ;
10 [label="gini = 0.0\nsamples = 15\nvalue = [0, 15]\nclass = Lose"] ;
9 -> 10 ;
11 [label="max temp <= 75.47\ngini = 0.32\nsamples = 25\nvalue = [5, 20]\nclass = Lose"] ;
9 -> 11 ;
12 [label="gini = 0.0\nsamples = 1\nvalue = [1, 0]\nclass = Win"] ;
11 -> 12 ;
13 [label="gini = 0.278\nsamples = 24\nvalue = [4, 20]\nclass = Lose"] ;
11 -> 13 ;
14 [label="min temp <= 71.51\ngini = 0.483\nsamples = 462\nvalue = [188, 274]\nclass = Lose"] ;
2 -> 14 ;
15 [label="min temp <= 49.351\ngini = 0.481\nsamples = 458\nvalue = [184, 274]\nclass = Lose"] ;
14 -> 15 ;
16 [label="max temp <= 74.48\ngini = 0.5\nsamples = 114\nvalue = [57, 57]\nclass = Win"] ;
15 -> 16 ;
17 [label="gini = 0.497\nsamples = 104\nvalue = [48, 56]\nclass = Lose"] ;
16 -> 17 ;
18 [label="gini = 0.18\nsamples = 10\nvalue = [9, 1]\nclass = Win"] ;
16 -> 18 ;
19 [label="max temp <= 61.52\ngini = 0.466\nsamples = 344\nvalue = [127, 217]\nclass = Lose"] ;
15 -> 19 ;
20 [label="gini = 0.0\nsamples = 3\nvalue = [3, 0]\nclass = Win"] ;
19 -> 20 ;
21 [label="gini = 0.463\nsamples = 341\nvalue = [124, 217]\nclass = Lose"] ;
19 -> 21 ;
22 [label="gini = 0.0\nsamples = 4\nvalue = [4, 0]\nclass = Win"] ;
14 -> 22 ;
23 [label="max temp <= 65.93\ngini = 0.251\nsamples = 34\nvalue = [5, 29]\nclass = Lose"] ;
1 -> 23 ;
24 [label="min temp <= 44.51\ngini = 0.346\nsamples = 18\nvalue = [4, 14]\nclass = Lose"] ;
23 -> 24 ;
25 [label="avg wind speed <= 31.5\ngini = 0.231\nsamples = 15\nvalue = [2, 13]\nclass = Lose"] ;
24 -> 25 ;
26 [label="min temp <= 37.49\ngini = 0.5\nsamples = 2\nvalue = [1, 1]\nclass = Win"] ;
25 -> 26 ;
27 [label="gini = 0.0\nsamples = 1\nvalue = [0, 1]\nclass = Lose"] ;
26 -> 27 ;
28 [label="gini = 0.0\nsamples = 1\nvalue = [1, 0]\nclass = Win"] ;
26 -> 28 ;
29 [label="max temp <= 44.51\ngini = 0.142\nsamples = 13\nvalue = [1, 12]\nclass = Lose"] ;
25 -> 29 ;
30 [label="gini = 0.375\nsamples = 4\nvalue = [1, 3]\nclass = Lose"] ;
29 -> 30 ;
31 [label="gini = 0.0\nsamples = 9\nvalue = [0, 9]\nclass = Lose"] ;
29 -> 31 ;
32 [label="min temp <= 49.01\ngini = 0.444\nsamples = 3\nvalue = [2, 1]\nclass = Win"] ;
24 -> 32 ;
33 [label="gini = 0.0\nsamples = 2\nvalue = [2, 0]\nclass = Win"] ;
32 -> 33 ;
34 [label="gini = 0.0\nsamples = 1\nvalue = [0, 1]\nclass = Lose"] ;
32 -> 34 ;
35 [label="avg wind speed <= 37.0\ngini = 0.117\nsamples = 16\nvalue = [1, 15]\nclass = Lose"] ;
23 -> 35 ;
36 [label="gini = 0.0\nsamples = 13\nvalue = [0, 13]\nclass = Lose"] ;
35 -> 36 ;
37 [label="min temp <= 52.07\ngini = 0.444\nsamples = 3\nvalue = [1, 2]\nclass = Lose"] ;
35 -> 37 ;
38 [label="gini = 0.0\nsamples = 2\nvalue = [0, 2]\nclass = Lose"] ;
37 -> 38 ;
39 [label="gini = 0.0\nsamples = 1\nvalue = [1, 0]\nclass = Win"] ;
37 -> 39 ;
40 [label="avg wind speed <= 42.5\ngini = 0.469\nsamples = 40\nvalue = [25, 15]\nclass = Win"] ;
0 -> 40 [labeldistance=2.5, labelangle=-45, headlabel="False"] ;
41 [label="avg wind speed <= 41.5\ngini = 0.153\nsamples = 12\nvalue = [11, 1]\nclass = Win"] ;
40 -> 41 ;
42 [label="gini = 0.0\nsamples = 8\nvalue = [8, 0]\nclass = Win"] ;
41 -> 42 ;
43 [label="max temp <= 65.03\ngini = 0.375\nsamples = 4\nvalue = [3, 1]\nclass = Win"] ;
41 -> 43 ;
44 [label="gini = 0.0\nsamples = 2\nvalue = [2, 0]\nclass = Win"] ;
43 -> 44 ;
45 [label="min temp <= 53.96\ngini = 0.5\nsamples = 2\nvalue = [1, 1]\nclass = Win"] ;
43 -> 45 ;
46 [label="gini = 0.0\nsamples = 1\nvalue = [0, 1]\nclass = Lose"] ;
45 -> 46 ;
47 [label="gini = 0.0\nsamples = 1\nvalue = [1, 0]\nclass = Win"] ;
45 -> 47 ;
48 [label="min temp <= 58.01\ngini = 0.5\nsamples = 28\nvalue = [14, 14]\nclass = Win"] ;
40 -> 48 ;
49 [label="min temp <= 53.51\ngini = 0.472\nsamples = 21\nvalue = [13, 8]\nclass = Win"] ;
48 -> 49 ;
50 [label="min temp <= 51.53\ngini = 0.498\nsamples = 17\nvalue = [9, 8]\nclass = Win"] ;
49 -> 50 ;
51 [label="max temp <= 59.54\ngini = 0.459\nsamples = 14\nvalue = [9, 5]\nclass = Win"] ;
50 -> 51 ;
52 [label="gini = 0.494\nsamples = 9\nvalue = [4, 5]\nclass = Lose"] ;
51 -> 52 ;
53 [label="gini = 0.0\nsamples = 5\nvalue = [5, 0]\nclass = Win"] ;
51 -> 53 ;
54 [label="gini = 0.0\nsamples = 3\nvalue = [0, 3]\nclass = Lose"] ;
50 -> 54 ;
55 [label="gini = 0.0\nsamples = 4\nvalue = [4, 0]\nclass = Win"] ;
49 -> 55 ;
56 [label="min temp <= 63.5\ngini = 0.245\nsamples = 7\nvalue = [1, 6]\nclass = Lose"] ;
48 -> 56 ;
57 [label="avg wind speed <= 46.0\ngini = 0.444\nsamples = 3\nvalue = [1, 2]\nclass = Lose"] ;
56 -> 57 ;
58 [label="gini = 0.0\nsamples = 1\nvalue = [1, 0]\nclass = Win"] ;
57 -> 58 ;
59 [label="gini = 0.0\nsamples = 2\nvalue = [0, 2]\nclass = Lose"] ;
57 -> 59 ;
60 [label="gini = 0.0\nsamples = 4\nvalue = [0, 4]\nclass = Lose"] ;
56 -> 60 ;
}