digraph Tree {
node [shape=box] ;
0 [label="avg wind speed <= 39.5\ngini = 0.473\nsamples = 629\nvalue = [241, 388]\nclass = Lose"] ;
1 [label="avg wind speed <= 30.5\ngini = 0.464\nsamples = 589\nvalue = [216, 373]\nclass = Lose"] ;
0 -> 1 [labeldistance=2.5, labelangle=45, headlabel="True"] ;
2 [label="avg wind speed <= 25.5\ngini = 0.471\nsamples = 555\nvalue = [211, 344]\nclass = Lose"] ;
1 -> 2 ;
3 [label="min temp <= 54.5\ngini = 0.372\nsamples = 93\nvalue = [23, 70]\nclass = Lose"] ;
2 -> 3 ;
4 [label="min temp <= 12.47\ngini = 0.449\nsamples = 53\nvalue = [18, 35]\nclass = Lose"] ;
3 -> 4 ;
5 [label="gini = 0.0\nsamples = 1\nvalue = [1, 0]\nclass = Win"] ;
4 -> 5 ;
6 [label="avg wind speed <= 1.0\ngini = 0.44\nsamples = 52\nvalue = [17, 35]\nclass = Lose"] ;
4 -> 6 ;
7 [label="gini = 0.0\nsamples = 1\nvalue = [1, 0]\nclass = Win"] ;
6 -> 7 ;
8 [label="avg wind speed <= 24.5\ngini = 0.431\nsamples = 51\nvalue = [16, 35]\nclass = Lose"] ;
6 -> 8 ;
9 [label="avg wind speed <= 22.5\ngini = 0.444\nsamples = 48\nvalue = [16, 32]\nclass = Lose"] ;
8 -> 9 ;
10 [label="avg wind speed <= 10.5\ngini = 0.423\nsamples = 46\nvalue = [14, 32]\nclass = Lose"] ;
9 -> 10 ;
11 [label="avg wind speed <= 8.5\ngini = 0.49\nsamples = 14\nvalue = [6, 8]\nclass = Lose"] ;
10 -> 11 ;
12 [label="gini = 0.397\nsamples = 11\nvalue = [3, 8]\nclass = Lose"] ;
11 -> 12 ;
13 [label="gini = 0.0\nsamples = 3\nvalue = [3, 0]\nclass = Win"] ;
11 -> 13 ;
14 [label="max temp <= 43.97\ngini = 0.375\nsamples = 32\nvalue = [8, 24]\nclass = Lose"] ;
10 -> 14 ;
15 [label="gini = 0.0\nsamples = 1\nvalue = [1, 0]\nclass = Win"] ;
14 -> 15 ;
16 [label="gini = 0.35\nsamples = 31\nvalue = [7, 24]\nclass = Lose"] ;
14 -> 16 ;
17 [label="gini = 0.0\nsamples = 2\nvalue = [2, 0]\nclass = Win"] ;
9 -> 17 ;
18 [label="gini = 0.0\nsamples = 3\nvalue = [0, 3]\nclass = Lose"] ;
8 -> 18 ;
19 [label="min temp <= 63.5\ngini = 0.219\nsamples = 40\nvalue = [5, 35]\nclass = Lose"] ;
3 -> 19 ;
20 [label="gini = 0.0\nsamples = 15\nvalue = [0, 15]\nclass = Lose"] ;
19 -> 20 ;
21 [label="max temp <= 75.47\ngini = 0.32\nsamples = 25\nvalue = [5, 20]\nclass = Lose"] ;
19 -> 21 ;
22 [label="gini = 0.0\nsamples = 1\nvalue = [1, 0]\nclass = Win"] ;
21 -> 22 ;
23 [label="min temp <= 66.47\ngini = 0.278\nsamples = 24\nvalue = [4, 20]\nclass = Lose"] ;
21 -> 23 ;
24 [label="avg wind speed <= 20.5\ngini = 0.469\nsamples = 8\nvalue = [3, 5]\nclass = Lose"] ;
23 -> 24 ;
25 [label="max temp <= 89.06\ngini = 0.278\nsamples = 6\nvalue = [1, 5]\nclass = Lose"] ;
24 -> 25 ;
26 [label="gini = 0.0\nsamples = 4\nvalue = [0, 4]\nclass = Lose"] ;
25 -> 26 ;
27 [label="avg wind speed <= 15.0\ngini = 0.5\nsamples = 2\nvalue = [1, 1]\nclass = Win"] ;
25 -> 27 ;
28 [label="gini = 0.0\nsamples = 1\nvalue = [1, 0]\nclass = Win"] ;
27 -> 28 ;
29 [label="gini = 0.0\nsamples = 1\nvalue = [0, 1]\nclass = Lose"] ;
27 -> 29 ;
30 [label="gini = 0.0\nsamples = 2\nvalue = [2, 0]\nclass = Win"] ;
24 -> 30 ;
31 [label="avg wind speed <= 22.5\ngini = 0.117\nsamples = 16\nvalue = [1, 15]\nclass = Lose"] ;
23 -> 31 ;
32 [label="gini = 0.0\nsamples = 10\nvalue = [0, 10]\nclass = Lose"] ;
31 -> 32 ;
33 [label="max temp <= 87.53\ngini = 0.278\nsamples = 6\nvalue = [1, 5]\nclass = Lose"] ;
31 -> 33 ;
34 [label="gini = 0.0\nsamples = 3\nvalue = [0, 3]\nclass = Lose"] ;
33 -> 34 ;
35 [label="max temp <= 88.52\ngini = 0.444\nsamples = 3\nvalue = [1, 2]\nclass = Lose"] ;
33 -> 35 ;
36 [label="gini = 0.0\nsamples = 1\nvalue = [1, 0]\nclass = Win"] ;
35 -> 36 ;
37 [label="gini = 0.0\nsamples = 2\nvalue = [0, 2]\nclass = Lose"] ;
35 -> 37 ;
38 [label="min temp <= 71.51\ngini = 0.483\nsamples = 462\nvalue = [188, 274]\nclass = Lose"] ;
2 -> 38 ;
39 [label="min temp <= 49.351\ngini = 0.481\nsamples = 458\nvalue = [184, 274]\nclass = Lose"] ;
38 -> 39 ;
40 [label="max temp <= 74.48\ngini = 0.5\nsamples = 114\nvalue = [57, 57]\nclass = Win"] ;
39 -> 40 ;
41 [label="min temp <= 40.46\ngini = 0.497\nsamples = 104\nvalue = [48, 56]\nclass = Lose"] ;
40 -> 41 ;
42 [label="avg wind speed <= 28.564\ngini = 0.472\nsamples = 55\nvalue = [21, 34]\nclass = Lose"] ;
41 -> 42 ;
43 [label="max temp <= 70.07\ngini = 0.46\nsamples = 53\nvalue = [19, 34]\nclass = Lose"] ;
42 -> 43 ;
44 [label="max temp <= 53.51\ngini = 0.44\nsamples = 49\nvalue = [16, 33]\nclass = Lose"] ;
43 -> 44 ;
45 [label="gini = 0.332\nsamples = 19\nvalue = [4, 15]\nclass = Lose"] ;
44 -> 45 ;
46 [label="gini = 0.48\nsamples = 30\nvalue = [12, 18]\nclass = Lose"] ;
44 -> 46 ;
47 [label="max temp <= 73.49\ngini = 0.375\nsamples = 4\nvalue = [3, 1]\nclass = Win"] ;
43 -> 47 ;
48 [label="gini = 0.0\nsamples = 3\nvalue = [3, 0]\nclass = Win"] ;
47 -> 48 ;
49 [label="gini = 0.0\nsamples = 1\nvalue = [0, 1]\nclass = Lose"] ;
47 -> 49 ;
50 [label="gini = 0.0\nsamples = 2\nvalue = [2, 0]\nclass = Win"] ;
42 -> 50 ;
51 [label="max temp <= 57.47\ngini = 0.495\nsamples = 49\nvalue = [27, 22]\nclass = Win"] ;
41 -> 51 ;
52 [label="min temp <= 45.5\ngini = 0.198\nsamples = 9\nvalue = [8, 1]\nclass = Win"] ;
51 -> 52 ;
53 [label="gini = 0.0\nsamples = 7\nvalue = [7, 0]\nclass = Win"] ;
52 -> 53 ;
54 [label="max temp <= 54.5\ngini = 0.5\nsamples = 2\nvalue = [1, 1]\nclass = Win"] ;
52 -> 54 ;
55 [label="gini = 0.0\nsamples = 1\nvalue = [0, 1]\nclass = Lose"] ;
54 -> 55 ;
56 [label="gini = 0.0\nsamples = 1\nvalue = [1, 0]\nclass = Win"] ;
54 -> 56 ;
57 [label="max temp <= 63.41\ngini = 0.499\nsamples = 40\nvalue = [19, 21]\nclass = Lose"] ;
51 -> 57 ;
58 [label="min temp <= 47.48\ngini = 0.42\nsamples = 10\nvalue = [3, 7]\nclass = Lose"] ;
57 -> 58 ;
59 [label="gini = 0.346\nsamples = 9\nvalue = [2, 7]\nclass = Lose"] ;
58 -> 59 ;
60 [label="gini = 0.0\nsamples = 1\nvalue = [1, 0]\nclass = Win"] ;
58 -> 60 ;
61 [label="min temp <= 47.48\ngini = 0.498\nsamples = 30\nvalue = [16, 14]\nclass = Win"] ;
57 -> 61 ;
62 [label="gini = 0.49\nsamples = 28\nvalue = [16, 12]\nclass = Win"] ;
61 -> 62 ;
63 [label="gini = 0.0\nsamples = 2\nvalue = [0, 2]\nclass = Lose"] ;
61 -> 63 ;
64 [label="min temp <= 48.47\ngini = 0.18\nsamples = 10\nvalue = [9, 1]\nclass = Win"] ;
40 -> 64 ;
65 [label="gini = 0.0\nsamples = 7\nvalue = [7, 0]\nclass = Win"] ;
64 -> 65 ;
66 [label="max temp <= 77.54\ngini = 0.444\nsamples = 3\nvalue = [2, 1]\nclass = Win"] ;
64 -> 66 ;
67 [label="gini = 0.0\nsamples = 1\nvalue = [1, 0]\nclass = Win"] ;
66 -> 67 ;
68 [label="max temp <= 81.05\ngini = 0.5\nsamples = 2\nvalue = [1, 1]\nclass = Win"] ;
66 -> 68 ;
69 [label="gini = 0.0\nsamples = 1\nvalue = [0, 1]\nclass = Lose"] ;
68 -> 69 ;
70 [label="gini = 0.0\nsamples = 1\nvalue = [1, 0]\nclass = Win"] ;
68 -> 70 ;
71 [label="max temp <= 61.52\ngini = 0.466\nsamples = 344\nvalue = [127, 217]\nclass = Lose"] ;
39 -> 71 ;
72 [label="gini = 0.0\nsamples = 3\nvalue = [3, 0]\nclass = Win"] ;
71 -> 72 ;
73 [label="max temp <= 68.09\ngini = 0.463\nsamples = 341\nvalue = [124, 217]\nclass = Lose"] ;
71 -> 73 ;
74 [label="min temp <= 53.51\ngini = 0.497\nsamples = 13\nvalue = [7, 6]\nclass = Win"] ;
73 -> 74 ;
75 [label="min temp <= 50.54\ngini = 0.375\nsamples = 8\nvalue = [6, 2]\nclass = Win"] ;
74 -> 75 ;
76 [label="gini = 0.0\nsamples = 3\nvalue = [3, 0]\nclass = Win"] ;
75 -> 76 ;
77 [label="min temp <= 52.07\ngini = 0.48\nsamples = 5\nvalue = [3, 2]\nclass = Win"] ;
75 -> 77 ;
78 [label="gini = 0.444\nsamples = 3\nvalue = [1, 2]\nclass = Lose"] ;
77 -> 78 ;
79 [label="gini = 0.0\nsamples = 2\nvalue = [2, 0]\nclass = Win"] ;
77 -> 79 ;
80 [label="min temp <= 56.48\ngini = 0.32\nsamples = 5\nvalue = [1, 4]\nclass = Lose"] ;
74 -> 80 ;
81 [label="gini = 0.0\nsamples = 3\nvalue = [0, 3]\nclass = Lose"] ;
80 -> 81 ;
82 [label="min temp <= 59.0\ngini = 0.5\nsamples = 2\nvalue = [1, 1]\nclass = Win"] ;
80 -> 82 ;
83 [label="gini = 0.0\nsamples = 1\nvalue = [1, 0]\nclass = Win"] ;
82 -> 83 ;
84 [label="gini = 0.0\nsamples = 1\nvalue = [0, 1]\nclass = Lose"] ;
82 -> 84 ;
85 [label="max temp <= 100.94\ngini = 0.459\nsamples = 328\nvalue = [117, 211]\nclass = Lose"] ;
73 -> 85 ;
86 [label="max temp <= 94.46\ngini = 0.458\nsamples = 327\nvalue = [116, 211]\nclass = Lose"] ;
85 -> 86 ;
87 [label="max temp <= 89.51\ngini = 0.46\nsamples = 323\nvalue = [116, 207]\nclass = Lose"] ;
86 -> 87 ;
88 [label="gini = 0.455\nsamples = 314\nvalue = [110, 204]\nclass = Lose"] ;
87 -> 88 ;
89 [label="gini = 0.444\nsamples = 9\nvalue = [6, 3]\nclass = Win"] ;
87 -> 89 ;
90 [label="gini = 0.0\nsamples = 4\nvalue = [0, 4]\nclass = Lose"] ;
86 -> 90 ;
91 [label="gini = 0.0\nsamples = 1\nvalue = [1, 0]\nclass = Win"] ;
85 -> 91 ;
92 [label="gini = 0.0\nsamples = 4\nvalue = [4, 0]\nclass = Win"] ;
38 -> 92 ;
93 [label="max temp <= 65.93\ngini = 0.251\nsamples = 34\nvalue = [5, 29]\nclass = Lose"] ;
1 -> 93 ;
94 [label="min temp <= 44.51\ngini = 0.346\nsamples = 18\nvalue = [4, 14]\nclass = Lose"] ;
93 -> 94 ;
95 [label="avg wind speed <= 31.5\ngini = 0.231\nsamples = 15\nvalue = [2, 13]\nclass = Lose"] ;
94 -> 95 ;
96 [label="min temp <= 37.49\ngini = 0.5\nsamples = 2\nvalue = [1, 1]\nclass = Win"] ;
95 -> 96 ;
97 [label="gini = 0.0\nsamples = 1\nvalue = [0, 1]\nclass = Lose"] ;
96 -> 97 ;
98 [label="gini = 0.0\nsamples = 1\nvalue = [1, 0]\nclass = Win"] ;
96 -> 98 ;
99 [label="max temp <= 44.51\ngini = 0.142\nsamples = 13\nvalue = [1, 12]\nclass = Lose"] ;
95 -> 99 ;
100 [label="max temp <= 41.45\ngini = 0.375\nsamples = 4\nvalue = [1, 3]\nclass = Lose"] ;
99 -> 100 ;
101 [label="gini = 0.0\nsamples = 3\nvalue = [0, 3]\nclass = Lose"] ;
100 -> 101 ;
102 [label="gini = 0.0\nsamples = 1\nvalue = [1, 0]\nclass = Win"] ;
100 -> 102 ;
103 [label="gini = 0.0\nsamples = 9\nvalue = [0, 9]\nclass = Lose"] ;
99 -> 103 ;
104 [label="min temp <= 49.01\ngini = 0.444\nsamples = 3\nvalue = [2, 1]\nclass = Win"] ;
94 -> 104 ;
105 [label="gini = 0.0\nsamples = 2\nvalue = [2, 0]\nclass = Win"] ;
104 -> 105 ;
106 [label="gini = 0.0\nsamples = 1\nvalue = [0, 1]\nclass = Lose"] ;
104 -> 106 ;
107 [label="avg wind speed <= 37.0\ngini = 0.117\nsamples = 16\nvalue = [1, 15]\nclass = Lose"] ;
93 -> 107 ;
108 [label="gini = 0.0\nsamples = 13\nvalue = [0, 13]\nclass = Lose"] ;
107 -> 108 ;
109 [label="min temp <= 52.07\ngini = 0.444\nsamples = 3\nvalue = [1, 2]\nclass = Lose"] ;
107 -> 109 ;
110 [label="gini = 0.0\nsamples = 2\nvalue = [0, 2]\nclass = Lose"] ;
109 -> 110 ;
111 [label="gini = 0.0\nsamples = 1\nvalue = [1, 0]\nclass = Win"] ;
109 -> 111 ;
112 [label="avg wind speed <= 42.5\ngini = 0.469\nsamples = 40\nvalue = [25, 15]\nclass = Win"] ;
0 -> 112 [labeldistance=2.5, labelangle=-45, headlabel="False"] ;
113 [label="avg wind speed <= 41.5\ngini = 0.153\nsamples = 12\nvalue = [11, 1]\nclass = Win"] ;
112 -> 113 ;
114 [label="gini = 0.0\nsamples = 8\nvalue = [8, 0]\nclass = Win"] ;
113 -> 114 ;
115 [label="max temp <= 65.03\ngini = 0.375\nsamples = 4\nvalue = [3, 1]\nclass = Win"] ;
113 -> 115 ;
116 [label="gini = 0.0\nsamples = 2\nvalue = [2, 0]\nclass = Win"] ;
115 -> 116 ;
117 [label="max temp <= 71.51\ngini = 0.5\nsamples = 2\nvalue = [1, 1]\nclass = Win"] ;
115 -> 117 ;
118 [label="gini = 0.0\nsamples = 1\nvalue = [0, 1]\nclass = Lose"] ;
117 -> 118 ;
119 [label="gini = 0.0\nsamples = 1\nvalue = [1, 0]\nclass = Win"] ;
117 -> 119 ;
120 [label="min temp <= 58.01\ngini = 0.5\nsamples = 28\nvalue = [14, 14]\nclass = Win"] ;
112 -> 120 ;
121 [label="min temp <= 53.51\ngini = 0.472\nsamples = 21\nvalue = [13, 8]\nclass = Win"] ;
120 -> 121 ;
122 [label="min temp <= 51.53\ngini = 0.498\nsamples = 17\nvalue = [9, 8]\nclass = Win"] ;
121 -> 122 ;
123 [label="max temp <= 59.54\ngini = 0.459\nsamples = 14\nvalue = [9, 5]\nclass = Win"] ;
122 -> 123 ;
124 [label="max temp <= 54.5\ngini = 0.494\nsamples = 9\nvalue = [4, 5]\nclass = Lose"] ;
123 -> 124 ;
125 [label="min temp <= 27.5\ngini = 0.444\nsamples = 6\nvalue = [4, 2]\nclass = Win"] ;
124 -> 125 ;
126 [label="gini = 0.0\nsamples = 1\nvalue = [0, 1]\nclass = Lose"] ;
125 -> 126 ;
127 [label="min temp <= 32.99\ngini = 0.32\nsamples = 5\nvalue = [4, 1]\nclass = Win"] ;
125 -> 127 ;
128 [label="gini = 0.0\nsamples = 3\nvalue = [3, 0]\nclass = Win"] ;
127 -> 128 ;
129 [label="avg wind speed <= 63.5\ngini = 0.5\nsamples = 2\nvalue = [1, 1]\nclass = Win"] ;
127 -> 129 ;
130 [label="gini = 0.0\nsamples = 1\nvalue = [0, 1]\nclass = Lose"] ;
129 -> 130 ;
131 [label="gini = 0.0\nsamples = 1\nvalue = [1, 0]\nclass = Win"] ;
129 -> 131 ;
132 [label="gini = 0.0\nsamples = 3\nvalue = [0, 3]\nclass = Lose"] ;
124 -> 132 ;
133 [label="gini = 0.0\nsamples = 5\nvalue = [5, 0]\nclass = Win"] ;
123 -> 133 ;
134 [label="gini = 0.0\nsamples = 3\nvalue = [0, 3]\nclass = Lose"] ;
122 -> 134 ;
135 [label="gini = 0.0\nsamples = 4\nvalue = [4, 0]\nclass = Win"] ;
121 -> 135 ;
136 [label="avg wind speed <= 46.0\ngini = 0.245\nsamples = 7\nvalue = [1, 6]\nclass = Lose"] ;
120 -> 136 ;
137 [label="min temp <= 64.94\ngini = 0.444\nsamples = 3\nvalue = [1, 2]\nclass = Lose"] ;
136 -> 137 ;
138 [label="gini = 0.0\nsamples = 1\nvalue = [1, 0]\nclass = Win"] ;
137 -> 138 ;
139 [label="gini = 0.0\nsamples = 2\nvalue = [0, 2]\nclass = Lose"] ;
137 -> 139 ;
140 [label="gini = 0.0\nsamples = 4\nvalue = [0, 4]\nclass = Lose"] ;
136 -> 140 ;
}