digraph Tree {
node [shape=box] ;
0 [label="score <= 34.5\ngini = 0.469\nsamples = 16\nvalue = [10, 6]\nclass = Win"] ;
1 [label="score <= 22.0\ngini = 0.165\nsamples = 11\nvalue = [10, 1]\nclass = Win"] ;
0 -> 1 [labeldistance=2.5, labelangle=45, headlabel="True"] ;
2 [label="gini = 0.0\nsamples = 6\nvalue = [6, 0]\nclass = Win"] ;
1 -> 2 ;
3 [label="gini = 0.32\nsamples = 5\nvalue = [4, 1]\nclass = Win"] ;
1 -> 3 ;
4 [label="gini = 0.0\nsamples = 5\nvalue = [0, 5]\nclass = Lose"] ;
0 -> 4 [labeldistance=2.5, labelangle=-45, headlabel="False"] ;
}