digraph Tree {
node [shape=box] ;
0 [label="attendance <= 24299.5\ngini = 0.469\nsamples = 16\nvalue = [10, 6]\nclass = Win"] ;
1 [label="min temp <= 40.46\ngini = 0.355\nsamples = 13\nvalue = [10, 3]\nclass = Win"] ;
0 -> 1 [labeldistance=2.5, labelangle=45, headlabel="True"] ;
2 [label="gini = 0.469\nsamples = 8\nvalue = [5, 3]\nclass = Win"] ;
1 -> 2 ;
3 [label="gini = 0.0\nsamples = 5\nvalue = [5, 0]\nclass = Win"] ;
1 -> 3 ;
4 [label="gini = 0.0\nsamples = 3\nvalue = [0, 3]\nclass = Lose"] ;
0 -> 4 [labeldistance=2.5, labelangle=-45, headlabel="False"] ;
}