digraph Tree {
node [shape=box] ;
0 [label="min temp <= 40.46\ngini = 0.469\nsamples = 16\nvalue = [10, 6]\nclass = Win"] ;
1 [label="max temp <= 41.99\ngini = 0.496\nsamples = 11\nvalue = [5, 6]\nclass = Lose"] ;
0 -> 1 [labeldistance=2.5, labelangle=45, headlabel="True"] ;
2 [label="gini = 0.0\nsamples = 2\nvalue = [2, 0]\nclass = Win"] ;
1 -> 2 ;
3 [label="gini = 0.444\nsamples = 9\nvalue = [3, 6]\nclass = Lose"] ;
1 -> 3 ;
4 [label="gini = 0.0\nsamples = 5\nvalue = [5, 0]\nclass = Win"] ;
0 -> 4 [labeldistance=2.5, labelangle=-45, headlabel="False"] ;
}