digraph Tree {
node [shape=box] ;
0 [label="max temp <= 68.99\ngini = 0.494\nsamples = 38\nvalue = [17, 21]\nclass = Lose"] ;
1 [label="gini = 0.0\nsamples = 6\nvalue = [0, 6]\nclass = Lose"] ;
0 -> 1 [labeldistance=2.5, labelangle=45, headlabel="True"] ;
2 [label="max temp <= 86.0\ngini = 0.498\nsamples = 32\nvalue = [17, 15]\nclass = Win"] ;
0 -> 2 [labeldistance=2.5, labelangle=-45, headlabel="False"] ;
3 [label="avg wind speed <= 20.5\ngini = 0.497\nsamples = 28\nvalue = [13, 15]\nclass = Lose"] ;
2 -> 3 ;
4 [label="gini = 0.0\nsamples = 3\nvalue = [0, 3]\nclass = Lose"] ;
3 -> 4 ;
5 [label="max temp <= 79.07\ngini = 0.499\nsamples = 25\nvalue = [13, 12]\nclass = Win"] ;
3 -> 5 ;
6 [label="gini = 0.48\nsamples = 20\nvalue = [12, 8]\nclass = Win"] ;
5 -> 6 ;
7 [label="gini = 0.32\nsamples = 5\nvalue = [1, 4]\nclass = Lose"] ;
5 -> 7 ;
8 [label="gini = 0.0\nsamples = 4\nvalue = [4, 0]\nclass = Win"] ;
2 -> 8 ;
}