digraph Tree {
node [shape=box] ;
0 [label="max temp <= 68.99\ngini = 0.494\nsamples = 38\nvalue = [17, 21]\nclass = Lose"] ;
1 [label="gini = 0.0\nsamples = 6\nvalue = [0, 6]\nclass = Lose"] ;
0 -> 1 [labeldistance=2.5, labelangle=45, headlabel="True"] ;
2 [label="max temp <= 86.0\ngini = 0.498\nsamples = 32\nvalue = [17, 15]\nclass = Win"] ;
0 -> 2 [labeldistance=2.5, labelangle=-45, headlabel="False"] ;
3 [label="avg wind speed <= 20.5\ngini = 0.497\nsamples = 28\nvalue = [13, 15]\nclass = Lose"] ;
2 -> 3 ;
4 [label="gini = 0.0\nsamples = 3\nvalue = [0, 3]\nclass = Lose"] ;
3 -> 4 ;
5 [label="max temp <= 79.07\ngini = 0.499\nsamples = 25\nvalue = [13, 12]\nclass = Win"] ;
3 -> 5 ;
6 [label="min temp <= 50.0\ngini = 0.48\nsamples = 20\nvalue = [12, 8]\nclass = Win"] ;
5 -> 6 ;
7 [label="gini = 0.0\nsamples = 4\nvalue = [4, 0]\nclass = Win"] ;
6 -> 7 ;
8 [label="attendance <= 40982.0\ngini = 0.5\nsamples = 16\nvalue = [8, 8]\nclass = Win"] ;
6 -> 8 ;
9 [label="attendance <= 16886.5\ngini = 0.444\nsamples = 6\nvalue = [4, 2]\nclass = Win"] ;
8 -> 9 ;
10 [label="max temp <= 74.39\ngini = 0.5\nsamples = 4\nvalue = [2, 2]\nclass = Win"] ;
9 -> 10 ;
11 [label="gini = 0.0\nsamples = 2\nvalue = [2, 0]\nclass = Win"] ;
10 -> 11 ;
12 [label="gini = 0.0\nsamples = 2\nvalue = [0, 2]\nclass = Lose"] ;
10 -> 12 ;
13 [label="gini = 0.0\nsamples = 2\nvalue = [2, 0]\nclass = Win"] ;
9 -> 13 ;
14 [label="attendance <= 52163.5\ngini = 0.48\nsamples = 10\nvalue = [4, 6]\nclass = Lose"] ;
8 -> 14 ;
15 [label="gini = 0.0\nsamples = 4\nvalue = [0, 4]\nclass = Lose"] ;
14 -> 15 ;
16 [label="min temp <= 52.343\ngini = 0.444\nsamples = 6\nvalue = [4, 2]\nclass = Win"] ;
14 -> 16 ;
17 [label="gini = 0.0\nsamples = 2\nvalue = [0, 2]\nclass = Lose"] ;
16 -> 17 ;
18 [label="gini = 0.0\nsamples = 4\nvalue = [4, 0]\nclass = Win"] ;
16 -> 18 ;
19 [label="min temp <= 61.97\ngini = 0.32\nsamples = 5\nvalue = [1, 4]\nclass = Lose"] ;
5 -> 19 ;
20 [label="gini = 0.0\nsamples = 4\nvalue = [0, 4]\nclass = Lose"] ;
19 -> 20 ;
21 [label="gini = 0.0\nsamples = 1\nvalue = [1, 0]\nclass = Win"] ;
19 -> 21 ;
22 [label="gini = 0.0\nsamples = 4\nvalue = [4, 0]\nclass = Win"] ;
2 -> 22 ;
}